digraph Tree {
node [shape=box, style="filled, rounded", color="black", fontname="helvetica"] ;
edge [fontname="helvetica"] ;
0 [label=<Order Item Total &le; 213.715<br/>squared_error = 26768.462<br/>samples = 4900<br/>value = 153.788>, fillcolor="#fdf6f1"] ;
1 [label=<Sales per customer &le; 100.765<br/>squared_error = 3416.712<br/>samples = 3990<br/>value = 99.936>, fillcolor="#fef9f6"] ;
0 -> 1 [labeldistance=2.5, labelangle=45, headlabel="True"] ;
2 [label=<Order Item Total &le; 59.44<br/>squared_error = 840.968<br/>samples = 2533<br/>value = 62.975>, fillcolor="#fefcfa"] ;
1 -> 2 ;
3 [label=<Order Item Total &le; 35.87<br/>squared_error = 236.676<br/>samples = 1388<br/>value = 40.437>, fillcolor="#fffdfc"] ;
2 -> 3 ;
4 [label=<Sales per customer &le; 22.195<br/>squared_error = 61.723<br/>samples = 666<br/>value = 26.684>, fillcolor="#fffefd"] ;
3 -> 4 ;
5 [label=<Sales per customer &le; 15.905<br/>squared_error = 24.082<br/>samples = 255<br/>value = 18.87>, fillcolor="#fffefe"] ;
4 -> 5 ;
6 [label=<Sales per customer &le; 11.765<br/>squared_error = 7.213<br/>samples = 105<br/>value = 13.877>, fillcolor="#ffffff"] ;
5 -> 6 ;
7 [label=<Product Price &le; 10.64<br/>squared_error = 0.834<br/>samples = 44<br/>value = 11.016>, fillcolor="#ffffff"] ;
6 -> 7 ;
8 [label=<Order Item Discount &le; 0.15<br/>squared_error = 0.0<br/>samples = 15<br/>value = 9.99>, fillcolor="#ffffff"] ;
7 -> 8 ;
9 [label=<squared_error = 0.0<br/>samples = 1<br/>value = 9.99>, fillcolor="#ffffff"] ;
8 -> 9 ;
10 [label=<Sales per customer &le; 7.74<br/>squared_error = 0.0<br/>samples = 14<br/>value = 9.99>, fillcolor="#ffffff"] ;
8 -> 10 ;
11 [label=<squared_error = 0.0<br/>samples = 1<br/>value = 9.99>, fillcolor="#ffffff"] ;
10 -> 11 ;
12 [label=<Order Item Discount &le; 0.25<br/>squared_error = 0.0<br/>samples = 13<br/>value = 9.99>, fillcolor="#ffffff"] ;
10 -> 12 ;
13 [label=<squared_error = 0.0<br/>samples = 1<br/>value = 9.99>, fillcolor="#ffffff"] ;
12 -> 13 ;
14 [label=<Sales per customer &le; 8.09<br/>squared_error = 0.0<br/>samples = 12<br/>value = 9.99>, fillcolor="#ffffff"] ;
12 -> 14 ;
15 [label=<squared_error = 0.0<br/>samples = 1<br/>value = 9.99>, fillcolor="#ffffff"] ;
14 -> 15 ;
16 [label=<squared_error = -0.0<br/>samples = 11<br/>value = 9.99>, fillcolor="#ffffff"] ;
14 -> 16 ;
17 [label=<Order Item Product Price &le; 13.265<br/>squared_error = 0.438<br/>samples = 29<br/>value = 11.547>, fillcolor="#ffffff"] ;
7 -> 17 ;
18 [label=<Product Name &le; 55.5<br/>squared_error = 0.016<br/>samples = 28<br/>value = 11.424>, fillcolor="#ffffff"] ;
17 -> 18 ;
19 [label=<Order Item Total &le; 8.865<br/>squared_error = 0.0<br/>samples = 13<br/>value = 11.29>, fillcolor="#ffffff"] ;
18 -> 19 ;
20 [label=<squared_error = 0.0<br/>samples = 1<br/>value = 11.29>, fillcolor="#ffffff"] ;
19 -> 20 ;
21 [label=<squared_error = -0.0<br/>samples = 12<br/>value = 11.29>, fillcolor="#ffffff"] ;
19 -> 21 ;
22 [label=<Order Item Discount &le; 0.06<br/>squared_error = 0.0<br/>samples = 15<br/>value = 11.54>, fillcolor="#ffffff"] ;
18 -> 22 ;
23 [label=<squared_error = 0.0<br/>samples = 1<br/>value = 11.54>, fillcolor="#ffffff"] ;
22 -> 23 ;
24 [label=<squared_error = 0.0<br/>samples = 14<br/>value = 11.54>, fillcolor="#ffffff"] ;
22 -> 24 ;
25 [label=<squared_error = 0.0<br/>samples = 1<br/>value = 14.99>, fillcolor="#ffffff"] ;
17 -> 25 ;
26 [label=<Order Item Discount &le; 3.22<br/>squared_error = 1.652<br/>samples = 61<br/>value = 15.941>, fillcolor="#fffffe"] ;
6 -> 26 ;
27 [label=<Order Item Product Price &le; 15.49<br/>squared_error = 0.449<br/>samples = 56<br/>value = 15.615>, fillcolor="#fffffe"] ;
26 -> 27 ;
28 [label=<Order Item Discount &le; 0.075<br/>squared_error = 0.0<br/>samples = 25<br/>value = 14.99>, fillcolor="#ffffff"] ;
27 -> 28 ;
29 [label=<squared_error = 0.0<br/>samples = 1<br/>value = 14.99>, fillcolor="#ffffff"] ;
28 -> 29 ;
30 [label=<Sales per customer &le; 12.14<br/>squared_error = 0.0<br/>samples = 24<br/>value = 14.99>, fillcolor="#ffffff"] ;
28 -> 30 ;
31 [label=<squared_error = 0.0<br/>samples = 1<br/>value = 14.99>, fillcolor="#ffffff"] ;
30 -> 31 ;
32 [label=<Sales per customer &le; 12.515<br/>squared_error = 0.0<br/>samples = 23<br/>value = 14.99>, fillcolor="#ffffff"] ;
30 -> 32 ;
33 [label=<squared_error = -0.0<br/>samples = 3<br/>value = 14.99>, fillcolor="#ffffff"] ;
32 -> 33 ;
34 [label=<squared_error = 0.0<br/>samples = 20<br/>value = 14.99>, fillcolor="#ffffff"] ;
32 -> 34 ;
35 [label=<Product Name &le; 36.0<br/>squared_error = 0.241<br/>samples = 31<br/>value = 16.119>, fillcolor="#fffffe"] ;
27 -> 35 ;
36 [label=<Order Item Total &le; 13.75<br/>squared_error = 0.0<br/>samples = 29<br/>value = 15.99>, fillcolor="#fffffe"] ;
35 -> 36 ;
37 [label=<squared_error = -0.0<br/>samples = 10<br/>value = 15.99>, fillcolor="#fffffe"] ;
36 -> 37 ;
38 [label=<Order Item Discount &le; 0.4<br/>squared_error = 0.0<br/>samples = 19<br/>value = 15.99>, fillcolor="#fffffe"] ;
36 -> 38 ;
39 [label=<squared_error = 0.0<br/>samples = 4<br/>value = 15.99>, fillcolor="#fffffe"] ;
38 -> 39 ;
40 [label=<squared_error = -0.0<br/>samples = 15<br/>value = 15.99>, fillcolor="#fffffe"] ;
38 -> 40 ;
41 [label=<Order Item Total &le; 15.2<br/>squared_error = 0.0<br/>samples = 2<br/>value = 17.99>, fillcolor="#fffefe"] ;
35 -> 41 ;
42 [label=<squared_error = 0.0<br/>samples = 1<br/>value = 17.99>, fillcolor="#fffefe"] ;
41 -> 42 ;
43 [label=<squared_error = 0.0<br/>samples = 1<br/>value = 17.99>, fillcolor="#fffefe"] ;
41 -> 43 ;
44 [label=<Sales per customer &le; 14.87<br/>squared_error = 0.638<br/>samples = 5<br/>value = 19.588>, fillcolor="#fffefe"] ;
26 -> 44 ;
45 [label=<squared_error = 0.0<br/>samples = 1<br/>value = 17.99>, fillcolor="#fffefe"] ;
44 -> 45 ;
46 [label=<Product Price &le; 14.99<br/>squared_error = 0.0<br/>samples = 4<br/>value = 19.987>, fillcolor="#fffefe"] ;
44 -> 46 ;
47 [label=<squared_error = 0.0<br/>samples = 1<br/>value = 19.98>, fillcolor="#fffefe"] ;
46 -> 47 ;
48 [label=<squared_error = -0.0<br/>samples = 3<br/>value = 19.99>, fillcolor="#fffefe"] ;
46 -> 48 ;
49 [label=<Order Item Product Price &le; 23.495<br/>squared_error = 6.228<br/>samples = 150<br/>value = 22.365>, fillcolor="#fffefe"] ;
5 -> 49 ;
50 [label=<Product Price &le; 20.99<br/>squared_error = 1.701<br/>samples = 87<br/>value = 20.427>, fillcolor="#fffefe"] ;
49 -> 50 ;
51 [label=<Category Name &le; 34.5<br/>squared_error = 0.707<br/>samples = 58<br/>value = 19.643>, fillcolor="#fffefe"] ;
50 -> 51 ;
52 [label=<Order Item Product Price &le; 18.99<br/>squared_error = 0.482<br/>samples = 57<br/>value = 19.707>, fillcolor="#fffefe"] ;
51 -> 52 ;
53 [label=<Order Item Product Price &le; 13.99<br/>squared_error = 0.965<br/>samples = 19<br/>value = 19.142>, fillcolor="#fffefe"] ;
52 -> 53 ;
54 [label=<Order Item Total &le; 16.18<br/>squared_error = 0.0<br/>samples = 11<br/>value = 19.98>, fillcolor="#fffefe"] ;
53 -> 54 ;
55 [label=<squared_error = 0.0<br/>samples = 1<br/>value = 19.98>, fillcolor="#fffefe"] ;
54 -> 55 ;
56 [label=<Order Item Discount &le; 0.1<br/>squared_error = 0.0<br/>samples = 10<br/>value = 19.98>, fillcolor="#fffefe"] ;
54 -> 56 ;
57 [label=<squared_error = 0.0<br/>samples = 1<br/>value = 19.98>, fillcolor="#fffefe"] ;
56 -> 57 ;
58 [label=<Order Item Discount &le; 0.3<br/>squared_error = 0.0<br/>samples = 9<br/>value = 19.98>, fillcolor="#fffefe"] ;
56 -> 58 ;
59 [label=<squared_error = 0.0<br/>samples = 1<br/>value = 19.98>, fillcolor="#fffefe"] ;
58 -> 59 ;
60 [label=<Order Item Total &le; 16.48<br/>squared_error = 0.0<br/>samples = 8<br/>value = 19.98>, fillcolor="#fffefe"] ;
58 -> 60 ;
61 [label=<squared_error = 0.0<br/>samples = 1<br/>value = 19.98>, fillcolor="#fffefe"] ;
60 -> 61 ;
62 [label=<Order Item Discount &le; 0.5<br/>squared_error = 0.0<br/>samples = 7<br/>value = 19.98>, fillcolor="#fffefe"] ;
60 -> 62 ;
63 [label=<squared_error = 0.0<br/>samples = 1<br/>value = 19.98>, fillcolor="#fffefe"] ;
62 -> 63 ;
64 [label=<Order Item Discount &le; 0.7<br/>squared_error = 0.0<br/>samples = 6<br/>value = 19.98>, fillcolor="#fffefe"] ;
62 -> 64 ;
65 [label=<squared_error = 0.0<br/>samples = 1<br/>value = 19.98>, fillcolor="#fffefe"] ;
64 -> 65 ;
66 [label=<squared_error = -0.0<br/>samples = 5<br/>value = 19.98>, fillcolor="#fffefe"] ;
64 -> 66 ;
67 [label=<Sales per customer &le; 16.28<br/>squared_error = 0.0<br/>samples = 8<br/>value = 17.99>, fillcolor="#fffefe"] ;
53 -> 67 ;
68 [label=<squared_error = 0.0<br/>samples = 1<br/>value = 17.99>, fillcolor="#fffefe"] ;
67 -> 68 ;
69 [label=<squared_error = 0.0<br/>samples = 7<br/>value = 17.99>, fillcolor="#fffefe"] ;
67 -> 69 ;
70 [label=<squared_error = -0.0<br/>samples = 38<br/>value = 19.99>, fillcolor="#fffefe"] ;
52 -> 70 ;
71 [label=<squared_error = 0.0<br/>samples = 1<br/>value = 15.99>, fillcolor="#fffffe"] ;
51 -> 71 ;
72 [label=<Category Name &le; 36.0<br/>squared_error = 0.0<br/>samples = 29<br/>value = 21.996>, fillcolor="#fffefe"] ;
50 -> 72 ;
73 [label=<Order Item Discount &le; 0.11<br/>squared_error = 0.0<br/>samples = 16<br/>value = 22.0>, fillcolor="#fffefe"] ;
72 -> 73 ;
74 [label=<squared_error = 0.0<br/>samples = 1<br/>value = 22.0>, fillcolor="#fffefe"] ;
73 -> 74 ;
75 [label=<squared_error = 0.0<br/>samples = 15<br/>value = 22.0>, fillcolor="#fffefe"] ;
73 -> 75 ;
76 [label=<squared_error = -0.0<br/>samples = 13<br/>value = 21.99>, fillcolor="#fffefe"] ;
72 -> 76 ;
77 [label=<Order Item Product Price &le; 26.495<br/>squared_error = 0.14<br/>samples = 63<br/>value = 25.04>, fillcolor="#fffefe"] ;
49 -> 77 ;
78 [label=<Product Price &le; 24.995<br/>squared_error = 0.0<br/>samples = 62<br/>value = 24.992>, fillcolor="#fffefe"] ;
77 -> 78 ;
79 [label=<squared_error = -0.0<br/>samples = 48<br/>value = 24.99>, fillcolor="#fffefe"] ;
78 -> 79 ;
80 [label=<Sales per customer &le; 19.375<br/>squared_error = 0.0<br/>samples = 14<br/>value = 25.0>, fillcolor="#fffefe"] ;
78 -> 80 ;
81 [label=<squared_error = 0.0<br/>samples = 2<br/>value = 25.0>, fillcolor="#fffefe"] ;
80 -> 81 ;
82 [label=<squared_error = 0.0<br/>samples = 12<br/>value = 25.0>, fillcolor="#fffefe"] ;
80 -> 82 ;
83 [label=<squared_error = -0.0<br/>samples = 1<br/>value = 27.99>, fillcolor="#fffefd"] ;
77 -> 83 ;
84 [label=<Sales per customer &le; 29.72<br/>squared_error = 23.685<br/>samples = 411<br/>value = 31.532>, fillcolor="#fffefd"] ;
4 -> 84 ;
85 [label=<Order Item Discount &le; 2.6<br/>squared_error = 8.755<br/>samples = 267<br/>value = 28.944>, fillcolor="#fffefd"] ;
84 -> 85 ;
86 [label=<Sales per customer &le; 25.725<br/>squared_error = 5.383<br/>samples = 129<br/>value = 26.636>, fillcolor="#fffefd"] ;
85 -> 86 ;
87 [label=<Order Item Product Price &le; 24.995<br/>squared_error = 0.0<br/>samples = 85<br/>value = 24.992>, fillcolor="#fffefe"] ;
86 -> 87 ;
88 [label=<Sales per customer &le; 22.99<br/>squared_error = 0.0<br/>samples = 70<br/>value = 24.99>, fillcolor="#fffefe"] ;
87 -> 88 ;
89 [label=<squared_error = 0.0<br/>samples = 13<br/>value = 24.99>, fillcolor="#fffefe"] ;
88 -> 89 ;
90 [label=<Product Image &le; 86.5<br/>squared_error = 0.0<br/>samples = 57<br/>value = 24.99>, fillcolor="#fffefe"] ;
88 -> 90 ;
91 [label=<squared_error = 0.0<br/>samples = 13<br/>value = 24.99>, fillcolor="#fffefe"] ;
90 -> 91 ;
92 [label=<squared_error = -0.0<br/>samples = 44<br/>value = 24.99>, fillcolor="#fffefe"] ;
90 -> 92 ;
93 [label=<Order Item Discount &le; 0.125<br/>squared_error = 0.0<br/>samples = 15<br/>value = 25.0>, fillcolor="#fffefe"] ;
87 -> 93 ;
94 [label=<squared_error = 0.0<br/>samples = 1<br/>value = 25.0>, fillcolor="#fffefe"] ;
93 -> 94 ;
95 [label=<squared_error = 0.0<br/>samples = 14<br/>value = 25.0>, fillcolor="#fffefe"] ;
93 -> 95 ;
96 [label=<Product Image &le; 91.5<br/>squared_error = 0.477<br/>samples = 44<br/>value = 29.811>, fillcolor="#fffefd"] ;
86 -> 96 ;
97 [label=<Category Name &le; 7.5<br/>squared_error = 0.058<br/>samples = 39<br/>value = 30.045>, fillcolor="#fffefd"] ;
96 -> 97 ;
98 [label=<squared_error = 0.0<br/>samples = 2<br/>value = 31.08>, fillcolor="#fffefd"] ;
97 -> 98 ;
99 [label=<Product Price &le; 22.49<br/>squared_error = 0.0<br/>samples = 37<br/>value = 29.989>, fillcolor="#fffefd"] ;
97 -> 99 ;
100 [label=<Category Name &le; 24.5<br/>squared_error = 0.0<br/>samples = 16<br/>value = 29.977>, fillcolor="#fffefd"] ;
99 -> 100 ;
101 [label=<squared_error = 0.0<br/>samples = 11<br/>value = 29.98>, fillcolor="#fffefd"] ;
100 -> 101 ;
102 [label=<Sales per customer &le; 28.395<br/>squared_error = 0.0<br/>samples = 5<br/>value = 29.97>, fillcolor="#fffefd"] ;
100 -> 102 ;
103 [label=<squared_error = 0.0<br/>samples = 1<br/>value = 29.97>, fillcolor="#fffefd"] ;
102 -> 103 ;
104 [label=<squared_error = 0.0<br/>samples = 4<br/>value = 29.97>, fillcolor="#fffefd"] ;
102 -> 104 ;
105 [label=<Product Price &le; 29.995<br/>squared_error = 0.0<br/>samples = 21<br/>value = 29.998>, fillcolor="#fffefd"] ;
99 -> 105 ;
106 [label=<squared_error = -0.0<br/>samples = 5<br/>value = 29.99>, fillcolor="#fffefd"] ;
105 -> 106 ;
107 [label=<squared_error = 0.0<br/>samples = 16<br/>value = 30.0>, fillcolor="#fffefd"] ;
105 -> 107 ;
108 [label=<Order Item Total &le; 26.87<br/>squared_error = 0.0<br/>samples = 5<br/>value = 27.99>, fillcolor="#fffefd"] ;
96 -> 108 ;
109 [label=<squared_error = 0.0<br/>samples = 2<br/>value = 27.99>, fillcolor="#fffefd"] ;
108 -> 109 ;
110 [label=<squared_error = -0.0<br/>samples = 3<br/>value = 27.99>, fillcolor="#fffefd"] ;
108 -> 110 ;
111 [label=<Order Item Product Price &le; 31.535<br/>squared_error = 2.268<br/>samples = 138<br/>value = 31.102>, fillcolor="#fffefd"] ;
85 -> 111 ;
112 [label=<Category Name &le; 41.0<br/>squared_error = 1.677<br/>samples = 94<br/>value = 30.496>, fillcolor="#fffefd"] ;
111 -> 112 ;
113 [label=<Order Item Discount &le; 8.385<br/>squared_error = 1.403<br/>samples = 75<br/>value = 30.119>, fillcolor="#fffefd"] ;
112 -> 113 ;
114 [label=<Sales per customer &le; 28.53<br/>squared_error = 0.951<br/>samples = 74<br/>value = 30.04>, fillcolor="#fffefd"] ;
113 -> 114 ;
115 [label=<Product Name &le; 91.5<br/>squared_error = 0.474<br/>samples = 73<br/>value = 29.959>, fillcolor="#fffefd"] ;
114 -> 115 ;
116 [label=<Order Item Product Price &le; 30.54<br/>squared_error = 0.139<br/>samples = 67<br/>value = 30.135>, fillcolor="#fffefd"] ;
115 -> 116 ;
117 [label=<Order Item Product Price &le; 22.49<br/>squared_error = 0.0<br/>samples = 58<br/>value = 29.989>, fillcolor="#fffefd"] ;
116 -> 117 ;
118 [label=<Product Price &le; 12.49<br/>squared_error = 0.0<br/>samples = 24<br/>value = 29.976>, fillcolor="#fffefd"] ;
117 -> 118 ;
119 [label=<squared_error = 0.0<br/>samples = 9<br/>value = 29.97>, fillcolor="#fffefd"] ;
118 -> 119 ;
120 [label=<Product Image &le; 38.5<br/>squared_error = 0.0<br/>samples = 15<br/>value = 29.98>, fillcolor="#fffefd"] ;
118 -> 120 ;
121 [label=<squared_error = -0.0<br/>samples = 8<br/>value = 29.98>, fillcolor="#fffefd"] ;
120 -> 121 ;
122 [label=<Sales per customer &le; 23.235<br/>squared_error = 0.0<br/>samples = 7<br/>value = 29.98>, fillcolor="#fffefd"] ;
120 -> 122 ;
123 [label=<squared_error = 0.0<br/>samples = 1<br/>value = 29.98>, fillcolor="#fffefd"] ;
122 -> 123 ;
124 [label=<Order Item Total &le; 24.58<br/>squared_error = 0.0<br/>samples = 6<br/>value = 29.98>, fillcolor="#fffefd"] ;
122 -> 124 ;
125 [label=<squared_error = 0.0<br/>samples = 1<br/>value = 29.98>, fillcolor="#fffefd"] ;
124 -> 125 ;
126 [label=<squared_error = 0.0<br/>samples = 5<br/>value = 29.98>, fillcolor="#fffefd"] ;
124 -> 126 ;
127 [label=<Order Item Product Price &le; 29.995<br/>squared_error = 0.0<br/>samples = 34<br/>value = 29.997>, fillcolor="#fffefd"] ;
117 -> 127 ;
128 [label=<squared_error = 0.0<br/>samples = 9<br/>value = 29.99>, fillcolor="#fffefd"] ;
127 -> 128 ;
129 [label=<squared_error = -0.0<br/>samples = 25<br/>value = 30.0>, fillcolor="#fffefd"] ;
127 -> 129 ;
130 [label=<squared_error = -0.0<br/>samples = 9<br/>value = 31.08>, fillcolor="#fffefd"] ;
116 -> 130 ;
131 [label=<Sales per customer &le; 22.67<br/>squared_error = 0.0<br/>samples = 6<br/>value = 27.99>, fillcolor="#fffefd"] ;
115 -> 131 ;
132 [label=<squared_error = 0.0<br/>samples = 1<br/>value = 27.99>, fillcolor="#fffefd"] ;
131 -> 132 ;
133 [label=<squared_error = -0.0<br/>samples = 5<br/>value = 27.99>, fillcolor="#fffefd"] ;
131 -> 133 ;
134 [label=<squared_error = -0.0<br/>samples = 1<br/>value = 35.98>, fillcolor="#fffdfc"] ;
114 -> 134 ;
135 [label=<squared_error = 0.0<br/>samples = 1<br/>value = 35.98>, fillcolor="#fffdfc"] ;
113 -> 135 ;
136 [label=<Order Item Discount &le; 3.04<br/>squared_error = 0.0<br/>samples = 19<br/>value = 31.98>, fillcolor="#fffefd"] ;
112 -> 136 ;
137 [label=<squared_error = 0.0<br/>samples = 1<br/>value = 31.98>, fillcolor="#fffefd"] ;
136 -> 137 ;
138 [label=<squared_error = -0.0<br/>samples = 18<br/>value = 31.98>, fillcolor="#fffefd"] ;
136 -> 138 ;
139 [label=<Product Price &le; 33.49<br/>squared_error = 1.06<br/>samples = 44<br/>value = 32.399>, fillcolor="#fffefd"] ;
111 -> 139 ;
140 [label=<squared_error = -0.0<br/>samples = 38<br/>value = 31.99>, fillcolor="#fffefd"] ;
139 -> 140 ;
141 [label=<Sales per customer &le; 27.115<br/>squared_error = 0.0<br/>samples = 6<br/>value = 34.99>, fillcolor="#fffdfd"] ;
139 -> 141 ;
142 [label=<squared_error = 0.0<br/>samples = 2<br/>value = 34.99>, fillcolor="#fffdfd"] ;
141 -> 142 ;
143 [label=<squared_error = -0.0<br/>samples = 4<br/>value = 34.99>, fillcolor="#fffdfd"] ;
141 -> 143 ;
144 [label=<Order Item Discount &le; 4.725<br/>squared_error = 15.925<br/>samples = 144<br/>value = 36.331>, fillcolor="#fffdfc"] ;
84 -> 144 ;
145 [label=<Order Item Total &le; 32.185<br/>squared_error = 3.924<br/>samples = 78<br/>value = 33.131>, fillcolor="#fffefd"] ;
144 -> 145 ;
146 [label=<Order Item Discount &le; 2.695<br/>squared_error = 1.924<br/>samples = 56<br/>value = 32.192>, fillcolor="#fffefd"] ;
145 -> 146 ;
147 [label=<Order Item Discount &le; 0.315<br/>squared_error = 0.411<br/>samples = 48<br/>value = 31.685>, fillcolor="#fffefd"] ;
146 -> 147 ;
148 [label=<Order Item Product Price &le; 30.54<br/>squared_error = 0.816<br/>samples = 11<br/>value = 30.915>, fillcolor="#fffefd"] ;
147 -> 148 ;
149 [label=<Order Item Total &le; 29.985<br/>squared_error = 0.0<br/>samples = 5<br/>value = 29.988>, fillcolor="#fffefd"] ;
148 -> 149 ;
150 [label=<Order Item Product Price &le; 12.49<br/>squared_error = 0.0<br/>samples = 2<br/>value = 29.975>, fillcolor="#fffefd"] ;
149 -> 150 ;
151 [label=<squared_error = 0.0<br/>samples = 1<br/>value = 29.97>, fillcolor="#fffefd"] ;
150 -> 151 ;
152 [label=<squared_error = 0.0<br/>samples = 1<br/>value = 29.98>, fillcolor="#fffefd"] ;
150 -> 152 ;
153 [label=<Product Price &le; 29.995<br/>squared_error = 0.0<br/>samples = 3<br/>value = 29.997>, fillcolor="#fffefd"] ;
149 -> 153 ;
154 [label=<squared_error = 0.0<br/>samples = 1<br/>value = 29.99>, fillcolor="#fffefd"] ;
153 -> 154 ;
155 [label=<squared_error = 0.0<br/>samples = 2<br/>value = 30.0>, fillcolor="#fffefd"] ;
153 -> 155 ;
156 [label=<Order Item Total &le; 31.535<br/>squared_error = 0.184<br/>samples = 6<br/>value = 31.687>, fillcolor="#fffefd"] ;
148 -> 156 ;
157 [label=<squared_error = 0.0<br/>samples = 2<br/>value = 31.08>, fillcolor="#fffefd"] ;
156 -> 157 ;
158 [label=<squared_error = 0.0<br/>samples = 4<br/>value = 31.99>, fillcolor="#fffefd"] ;
156 -> 158 ;
159 [label=<Category Name &le; 11.0<br/>squared_error = 0.061<br/>samples = 37<br/>value = 31.914>, fillcolor="#fffefd"] ;
147 -> 159 ;
160 [label=<Sales per customer &le; 29.995<br/>squared_error = 0.0<br/>samples = 3<br/>value = 31.08>, fillcolor="#fffefd"] ;
159 -> 160 ;
161 [label=<squared_error = 0.0<br/>samples = 1<br/>value = 31.08>, fillcolor="#fffefd"] ;
160 -> 161 ;
162 [label=<Order Item Total &le; 30.305<br/>squared_error = 0.0<br/>samples = 2<br/>value = 31.08>, fillcolor="#fffefd"] ;
160 -> 162 ;
163 [label=<squared_error = 0.0<br/>samples = 1<br/>value = 31.08>, fillcolor="#fffefd"] ;
162 -> 163 ;
164 [label=<squared_error = 0.0<br/>samples = 1<br/>value = 31.08>, fillcolor="#fffefd"] ;
162 -> 164 ;
165 [label=<Order Item Product Price &le; 23.99<br/>squared_error = 0.0<br/>samples = 34<br/>value = 31.988>, fillcolor="#fffefd"] ;
159 -> 165 ;
166 [label=<Product Image &le; 31.5<br/>squared_error = 0.0<br/>samples = 8<br/>value = 31.98>, fillcolor="#fffefd"] ;
165 -> 166 ;
167 [label=<squared_error = -0.0<br/>samples = 3<br/>value = 31.98>, fillcolor="#fffefd"] ;
166 -> 167 ;
168 [label=<Sales per customer &le; 29.98<br/>squared_error = 0.0<br/>samples = 5<br/>value = 31.98>, fillcolor="#fffefd"] ;
166 -> 168 ;
169 [label=<squared_error = 0.0<br/>samples = 1<br/>value = 31.98>, fillcolor="#fffefd"] ;
168 -> 169 ;
170 [label=<squared_error = -0.0<br/>samples = 4<br/>value = 31.98>, fillcolor="#fffefd"] ;
168 -> 170 ;
171 [label=<squared_error = -0.0<br/>samples = 26<br/>value = 31.99>, fillcolor="#fffefd"] ;
165 -> 171 ;
172 [label=<Product Image &le; 71.5<br/>squared_error = 0.184<br/>samples = 8<br/>value = 35.238>, fillcolor="#fffdfc"] ;
146 -> 172 ;
173 [label=<squared_error = 0.0<br/>samples = 2<br/>value = 35.98>, fillcolor="#fffdfc"] ;
172 -> 173 ;
174 [label=<squared_error = -0.0<br/>samples = 6<br/>value = 34.99>, fillcolor="#fffdfd"] ;
172 -> 174 ;
175 [label=<Order Item Total &le; 35.7<br/>squared_error = 1.059<br/>samples = 22<br/>value = 35.521>, fillcolor="#fffdfc"] ;
145 -> 175 ;
176 [label=<Product Name &le; 71.5<br/>squared_error = 0.218<br/>samples = 21<br/>value = 35.32>, fillcolor="#fffdfc"] ;
175 -> 176 ;
177 [label=<squared_error = 0.0<br/>samples = 7<br/>value = 35.98>, fillcolor="#fffdfc"] ;
176 -> 177 ;
178 [label=<squared_error = 0.0<br/>samples = 14<br/>value = 34.99>, fillcolor="#fffdfd"] ;
176 -> 178 ;
179 [label=<squared_error = 0.0<br/>samples = 1<br/>value = 39.75>, fillcolor="#fffdfc"] ;
175 -> 179 ;
180 [label=<Order Item Discount &le; 10.5<br/>squared_error = 3.714<br/>samples = 66<br/>value = 40.112>, fillcolor="#fffdfc"] ;
144 -> 180 ;
181 [label=<Product Name &le; 102.5<br/>squared_error = 1.798<br/>samples = 60<br/>value = 39.658>, fillcolor="#fffdfc"] ;
180 -> 181 ;
182 [label=<Order Item Total &le; 31.19<br/>squared_error = 1.083<br/>samples = 58<br/>value = 39.819>, fillcolor="#fffdfc"] ;
181 -> 182 ;
183 [label=<Order Item Discount &le; 8.03<br/>squared_error = 3.134<br/>samples = 11<br/>value = 38.869>, fillcolor="#fffdfc"] ;
182 -> 183 ;
184 [label=<squared_error = 0.0<br/>samples = 3<br/>value = 35.98>, fillcolor="#fffdfc"] ;
183 -> 184 ;
185 [label=<Category Name &le; 41.5<br/>squared_error = 0.006<br/>samples = 8<br/>value = 39.953>, fillcolor="#fffdfc"] ;
183 -> 185 ;
186 [label=<Sales per customer &le; 29.98<br/>squared_error = 0.0<br/>samples = 7<br/>value = 39.981>, fillcolor="#fffdfc"] ;
185 -> 186 ;
187 [label=<squared_error = 0.0<br/>samples = 1<br/>value = 39.96>, fillcolor="#fffdfc"] ;
186 -> 187 ;
188 [label=<Product Price &le; 29.99<br/>squared_error = 0.0<br/>samples = 6<br/>value = 39.985>, fillcolor="#fffdfc"] ;
186 -> 188 ;
189 [label=<squared_error = 0.0<br/>samples = 3<br/>value = 39.98>, fillcolor="#fffdfc"] ;
188 -> 189 ;
190 [label=<squared_error = 0.0<br/>samples = 3<br/>value = 39.99>, fillcolor="#fffdfc"] ;
188 -> 190 ;
191 [label=<squared_error = -0.0<br/>samples = 1<br/>value = 39.75>, fillcolor="#fffdfc"] ;
185 -> 191 ;
192 [label=<Order Item Discount &le; 8.4<br/>squared_error = 0.342<br/>samples = 47<br/>value = 40.041>, fillcolor="#fffdfc"] ;
182 -> 192 ;
193 [label=<Category Name &le; 41.5<br/>squared_error = 0.005<br/>samples = 46<br/>value = 39.956>, fillcolor="#fffdfc"] ;
192 -> 193 ;
194 [label=<Product Price &le; 14.99<br/>squared_error = 0.0<br/>samples = 41<br/>value = 39.981>, fillcolor="#fffdfc"] ;
193 -> 194 ;
195 [label=<Order Item Total &le; 32.37<br/>squared_error = 0.0<br/>samples = 7<br/>value = 39.96>, fillcolor="#fffdfc"] ;
194 -> 195 ;
196 [label=<squared_error = 0.0<br/>samples = 1<br/>value = 39.96>, fillcolor="#fffdfc"] ;
195 -> 196 ;
197 [label=<Sales per customer &le; 32.97<br/>squared_error = 0.0<br/>samples = 6<br/>value = 39.96>, fillcolor="#fffdfc"] ;
195 -> 197 ;
198 [label=<squared_error = 0.0<br/>samples = 1<br/>value = 39.96>, fillcolor="#fffdfc"] ;
197 -> 198 ;
199 [label=<squared_error = -0.0<br/>samples = 5<br/>value = 39.96>, fillcolor="#fffdfc"] ;
197 -> 199 ;
200 [label=<Product Price &le; 29.99<br/>squared_error = 0.0<br/>samples = 34<br/>value = 39.985>, fillcolor="#fffdfc"] ;
194 -> 200 ;
201 [label=<squared_error = -0.0<br/>samples = 17<br/>value = 39.98>, fillcolor="#fffdfc"] ;
200 -> 201 ;
202 [label=<Order Item Total &le; 32.39<br/>squared_error = 0.0<br/>samples = 17<br/>value = 39.99>, fillcolor="#fffdfc"] ;
200 -> 202 ;
203 [label=<squared_error = 0.0<br/>samples = 2<br/>value = 39.99>, fillcolor="#fffdfc"] ;
202 -> 203 ;
204 [label=<Order Item Total &le; 32.99<br/>squared_error = 0.0<br/>samples = 15<br/>value = 39.99>, fillcolor="#fffdfc"] ;
202 -> 204 ;
205 [label=<squared_error = 0.0<br/>samples = 2<br/>value = 39.99>, fillcolor="#fffdfc"] ;
204 -> 205 ;
206 [label=<Sales per customer &le; 33.79<br/>squared_error = 0.0<br/>samples = 13<br/>value = 39.99>, fillcolor="#fffdfc"] ;
204 -> 206 ;
207 [label=<squared_error = 0.0<br/>samples = 6<br/>value = 39.99>, fillcolor="#fffdfc"] ;
206 -> 207 ;
208 [label=<Product Name &le; 48.5<br/>squared_error = 0.0<br/>samples = 7<br/>value = 39.99>, fillcolor="#fffdfc"] ;
206 -> 208 ;
209 [label=<squared_error = 0.0<br/>samples = 3<br/>value = 39.99>, fillcolor="#fffdfc"] ;
208 -> 209 ;
210 [label=<squared_error = -0.0<br/>samples = 4<br/>value = 39.99>, fillcolor="#fffdfc"] ;
208 -> 210 ;
211 [label=<squared_error = 0.0<br/>samples = 5<br/>value = 39.75>, fillcolor="#fffdfc"] ;
193 -> 211 ;
212 [label=<squared_error = -0.0<br/>samples = 1<br/>value = 43.98>, fillcolor="#fffdfc"] ;
192 -> 212 ;
213 [label=<squared_error = -0.0<br/>samples = 2<br/>value = 34.99>, fillcolor="#fffdfd"] ;
181 -> 213 ;
214 [label=<Order Item Discount &le; 11.12<br/>squared_error = 0.218<br/>samples = 6<br/>value = 44.65>, fillcolor="#fffdfc"] ;
180 -> 214 ;
215 [label=<Order Item Total &le; 32.995<br/>squared_error = 0.0<br/>samples = 2<br/>value = 43.99>, fillcolor="#fffdfc"] ;
214 -> 215 ;
216 [label=<squared_error = 0.0<br/>samples = 1<br/>value = 43.98>, fillcolor="#fffdfc"] ;
215 -> 216 ;
217 [label=<squared_error = 0.0<br/>samples = 1<br/>value = 44.0>, fillcolor="#fffdfc"] ;
215 -> 217 ;
218 [label=<Order Item Total &le; 33.735<br/>squared_error = 0.0<br/>samples = 4<br/>value = 44.98>, fillcolor="#fffdfc"] ;
214 -> 218 ;
219 [label=<squared_error = 0.0<br/>samples = 2<br/>value = 44.97>, fillcolor="#fffdfc"] ;
218 -> 219 ;
220 [label=<squared_error = -0.0<br/>samples = 2<br/>value = 44.99>, fillcolor="#fffdfc"] ;
218 -> 220 ;
221 [label=<Order Item Total &le; 49.15<br/>squared_error = 62.627<br/>samples = 722<br/>value = 53.124>, fillcolor="#fefcfb"] ;
3 -> 221 ;
222 [label=<Order Item Total &le; 40.95<br/>squared_error = 27.522<br/>samples = 439<br/>value = 48.334>, fillcolor="#fefdfb"] ;
221 -> 222 ;
223 [label=<Order Item Discount &le; 4.025<br/>squared_error = 15.844<br/>samples = 152<br/>value = 43.952>, fillcolor="#fffdfc"] ;
222 -> 223 ;
224 [label=<Sales per customer &le; 40.005<br/>squared_error = 0.954<br/>samples = 67<br/>value = 40.077>, fillcolor="#fffdfc"] ;
223 -> 224 ;
225 [label=<Sales per customer &le; 35.985<br/>squared_error = 0.248<br/>samples = 64<br/>value = 39.894>, fillcolor="#fffdfc"] ;
224 -> 225 ;
226 [label=<Order Item Discount &le; 2.0<br/>squared_error = 2.554<br/>samples = 5<br/>value = 39.176>, fillcolor="#fffdfc"] ;
225 -> 226 ;
227 [label=<squared_error = 0.0<br/>samples = 1<br/>value = 35.98>, fillcolor="#fffdfc"] ;
226 -> 227 ;
228 [label=<Sales per customer &le; 35.97<br/>squared_error = 0.0<br/>samples = 4<br/>value = 39.975>, fillcolor="#fffdfc"] ;
226 -> 228 ;
229 [label=<squared_error = 0.0<br/>samples = 1<br/>value = 39.96>, fillcolor="#fffdfc"] ;
228 -> 229 ;
230 [label=<squared_error = -0.0<br/>samples = 3<br/>value = 39.98>, fillcolor="#fffdfc"] ;
228 -> 230 ;
231 [label=<Category Name &le; 41.5<br/>squared_error = 0.006<br/>samples = 59<br/>value = 39.954>, fillcolor="#fffdfc"] ;
225 -> 231 ;
232 [label=<Order Item Product Price &le; 14.99<br/>squared_error = 0.0<br/>samples = 52<br/>value = 39.982>, fillcolor="#fffdfc"] ;
231 -> 232 ;
233 [label=<Sales per customer &le; 36.76<br/>squared_error = 0.0<br/>samples = 7<br/>value = 39.96>, fillcolor="#fffdfc"] ;
232 -> 233 ;
234 [label=<squared_error = 0.0<br/>samples = 1<br/>value = 39.96>, fillcolor="#fffdfc"] ;
233 -> 234 ;
235 [label=<Order Item Discount &le; 0.2<br/>squared_error = 0.0<br/>samples = 6<br/>value = 39.96>, fillcolor="#fffdfc"] ;
233 -> 235 ;
236 [label=<squared_error = 0.0<br/>samples = 1<br/>value = 39.96>, fillcolor="#fffdfc"] ;
235 -> 236 ;
237 [label=<squared_error = -0.0<br/>samples = 5<br/>value = 39.96>, fillcolor="#fffdfc"] ;
235 -> 237 ;
238 [label=<Order Item Product Price &le; 29.99<br/>squared_error = 0.0<br/>samples = 45<br/>value = 39.985>, fillcolor="#fffdfc"] ;
232 -> 238 ;
239 [label=<squared_error = -0.0<br/>samples = 21<br/>value = 39.98>, fillcolor="#fffdfc"] ;
238 -> 239 ;
240 [label=<Order Item Total &le; 36.19<br/>squared_error = 0.0<br/>samples = 24<br/>value = 39.99>, fillcolor="#fffdfc"] ;
238 -> 240 ;
241 [label=<squared_error = 0.0<br/>samples = 3<br/>value = 39.99>, fillcolor="#fffdfc"] ;
240 -> 241 ;
242 [label=<Product Image &le; 92.0<br/>squared_error = 0.0<br/>samples = 21<br/>value = 39.99>, fillcolor="#fffdfc"] ;
240 -> 242 ;
243 [label=<squared_error = 0.0<br/>samples = 12<br/>value = 39.99>, fillcolor="#fffdfc"] ;
242 -> 243 ;
244 [label=<Order Item Total &le; 36.79<br/>squared_error = 0.0<br/>samples = 9<br/>value = 39.99>, fillcolor="#fffdfc"] ;
242 -> 244 ;
245 [label=<squared_error = 0.0<br/>samples = 1<br/>value = 39.99>, fillcolor="#fffdfc"] ;
244 -> 245 ;
246 [label=<squared_error = 0.0<br/>samples = 8<br/>value = 39.99>, fillcolor="#fffdfc"] ;
244 -> 246 ;
247 [label=<Order Item Discount &le; 0.2<br/>squared_error = 0.0<br/>samples = 7<br/>value = 39.75>, fillcolor="#fffdfc"] ;
231 -> 247 ;
248 [label=<squared_error = 0.0<br/>samples = 1<br/>value = 39.75>, fillcolor="#fffdfc"] ;
247 -> 248 ;
249 [label=<squared_error = 0.0<br/>samples = 6<br/>value = 39.75>, fillcolor="#fffdfc"] ;
247 -> 249 ;
250 [label=<Sales per customer &le; 40.91<br/>squared_error = 0.0<br/>samples = 3<br/>value = 43.987>, fillcolor="#fffdfc"] ;
224 -> 250 ;
251 [label=<Sales per customer &le; 40.46<br/>squared_error = 0.0<br/>samples = 2<br/>value = 43.98>, fillcolor="#fffdfc"] ;
250 -> 251 ;
252 [label=<squared_error = 0.0<br/>samples = 1<br/>value = 43.98>, fillcolor="#fffdfc"] ;
251 -> 252 ;
253 [label=<squared_error = 0.0<br/>samples = 1<br/>value = 43.98>, fillcolor="#fffdfc"] ;
251 -> 253 ;
254 [label=<squared_error = 0.0<br/>samples = 1<br/>value = 44.0>, fillcolor="#fffdfc"] ;
250 -> 254 ;
255 [label=<Order Item Discount &le; 9.295<br/>squared_error = 6.419<br/>samples = 85<br/>value = 47.006>, fillcolor="#fffdfb"] ;
223 -> 255 ;
256 [label=<Product Image &le; 33.0<br/>squared_error = 2.062<br/>samples = 56<br/>value = 45.464>, fillcolor="#fffdfb"] ;
255 -> 256 ;
257 [label=<squared_error = 0.0<br/>samples = 8<br/>value = 47.97>, fillcolor="#fffdfb"] ;
256 -> 257 ;
258 [label=<Order Item Product Price &le; 46.49<br/>squared_error = 1.184<br/>samples = 48<br/>value = 45.046>, fillcolor="#fffdfc"] ;
256 -> 258 ;
259 [label=<Category Name &le; 26.0<br/>squared_error = 0.197<br/>samples = 43<br/>value = 44.704>, fillcolor="#fffdfc"] ;
258 -> 259 ;
260 [label=<Product Image &le; 72.0<br/>squared_error = 0.0<br/>samples = 24<br/>value = 44.978>, fillcolor="#fffdfc"] ;
259 -> 260 ;
261 [label=<squared_error = 0.0<br/>samples = 15<br/>value = 44.97>, fillcolor="#fffdfc"] ;
260 -> 261 ;
262 [label=<Order Item Total &le; 36.44<br/>squared_error = 0.0<br/>samples = 9<br/>value = 44.99>, fillcolor="#fffdfc"] ;
260 -> 262 ;
263 [label=<squared_error = 0.0<br/>samples = 1<br/>value = 44.99>, fillcolor="#fffdfc"] ;
262 -> 263 ;
264 [label=<Order Item Discount &le; 4.275<br/>squared_error = 0.0<br/>samples = 8<br/>value = 44.99>, fillcolor="#fffdfc"] ;
262 -> 264 ;
265 [label=<squared_error = 0.0<br/>samples = 1<br/>value = 44.99>, fillcolor="#fffdfc"] ;
264 -> 265 ;
266 [label=<Order Item Discount &le; 4.95<br/>squared_error = 0.0<br/>samples = 7<br/>value = 44.99>, fillcolor="#fffdfc"] ;
264 -> 266 ;
267 [label=<squared_error = 0.0<br/>samples = 1<br/>value = 44.99>, fillcolor="#fffdfc"] ;
266 -> 267 ;
268 [label=<squared_error = 0.0<br/>samples = 6<br/>value = 44.99>, fillcolor="#fffdfc"] ;
266 -> 268 ;
269 [label=<Product Price &le; 33.495<br/>squared_error = 0.233<br/>samples = 19<br/>value = 44.358>, fillcolor="#fffdfc"] ;
259 -> 269 ;
270 [label=<Product Name &le; 44.0<br/>squared_error = 0.0<br/>samples = 12<br/>value = 43.99>, fillcolor="#fffdfc"] ;
269 -> 270 ;
271 [label=<squared_error = 0.0<br/>samples = 6<br/>value = 43.98>, fillcolor="#fffdfc"] ;
270 -> 271 ;
272 [label=<Order Item Discount &le; 4.84<br/>squared_error = 0.0<br/>samples = 6<br/>value = 44.0>, fillcolor="#fffdfc"] ;
270 -> 272 ;
273 [label=<squared_error = 0.0<br/>samples = 1<br/>value = 44.0>, fillcolor="#fffdfc"] ;
272 -> 273 ;
274 [label=<squared_error = 0.0<br/>samples = 5<br/>value = 44.0>, fillcolor="#fffdfc"] ;
272 -> 274 ;
275 [label=<Order Item Discount &le; 4.725<br/>squared_error = 0.0<br/>samples = 7<br/>value = 44.99>, fillcolor="#fffdfc"] ;
269 -> 275 ;
276 [label=<squared_error = 0.0<br/>samples = 1<br/>value = 44.99>, fillcolor="#fffdfc"] ;
275 -> 276 ;
277 [label=<squared_error = 0.0<br/>samples = 6<br/>value = 44.99>, fillcolor="#fffdfc"] ;
275 -> 277 ;
278 [label=<squared_error = 0.0<br/>samples = 5<br/>value = 47.99>, fillcolor="#fffdfb"] ;
258 -> 278 ;
279 [label=<Order Item Discount &le; 12.75<br/>squared_error = 1.377<br/>samples = 29<br/>value = 49.983>, fillcolor="#fefcfb"] ;
255 -> 279 ;
280 [label=<Order Item Discount &le; 9.795<br/>squared_error = 0.52<br/>samples = 26<br/>value = 49.675>, fillcolor="#fefcfb"] ;
279 -> 280 ;
281 [label=<Product Price &le; 31.99<br/>squared_error = 0.0<br/>samples = 3<br/>value = 47.983>, fillcolor="#fffdfb"] ;
280 -> 281 ;
282 [label=<squared_error = 0.0<br/>samples = 1<br/>value = 47.97>, fillcolor="#fffdfb"] ;
281 -> 282 ;
283 [label=<squared_error = 0.0<br/>samples = 2<br/>value = 47.99>, fillcolor="#fffdfb"] ;
281 -> 283 ;
284 [label=<Sales per customer &le; 36.725<br/>squared_error = 0.165<br/>samples = 23<br/>value = 49.896>, fillcolor="#fefcfb"] ;
280 -> 284 ;
285 [label=<squared_error = 0.0<br/>samples = 1<br/>value = 47.99>, fillcolor="#fffdfb"] ;
284 -> 285 ;
286 [label=<Order Item Product Price &le; 17.49<br/>squared_error = 0.0<br/>samples = 22<br/>value = 49.983>, fillcolor="#fefcfb"] ;
284 -> 286 ;
287 [label=<squared_error = 0.0<br/>samples = 2<br/>value = 49.95>, fillcolor="#fefcfb"] ;
286 -> 287 ;
288 [label=<Order Item Product Price &le; 24.995<br/>squared_error = 0.0<br/>samples = 20<br/>value = 49.986>, fillcolor="#fefcfb"] ;
286 -> 288 ;
289 [label=<Order Item Total &le; 38.735<br/>squared_error = 0.0<br/>samples = 12<br/>value = 49.98>, fillcolor="#fefcfb"] ;
288 -> 289 ;
290 [label=<squared_error = -0.0<br/>samples = 7<br/>value = 49.98>, fillcolor="#fefcfb"] ;
289 -> 290 ;
291 [label=<Product Image &le; 86.5<br/>squared_error = 0.0<br/>samples = 5<br/>value = 49.98>, fillcolor="#fefcfb"] ;
289 -> 291 ;
292 [label=<squared_error = 0.0<br/>samples = 1<br/>value = 49.98>, fillcolor="#fefcfb"] ;
291 -> 292 ;
293 [label=<squared_error = 0.0<br/>samples = 4<br/>value = 49.98>, fillcolor="#fefcfb"] ;
291 -> 293 ;
294 [label=<Order Item Total &le; 37.495<br/>squared_error = 0.0<br/>samples = 8<br/>value = 49.995>, fillcolor="#fefcfb"] ;
288 -> 294 ;
295 [label=<squared_error = 0.0<br/>samples = 1<br/>value = 49.98>, fillcolor="#fefcfb"] ;
294 -> 295 ;
296 [label=<Order Item Product Price &le; 37.49<br/>squared_error = 0.0<br/>samples = 7<br/>value = 49.997>, fillcolor="#fefcfb"] ;
294 -> 296 ;
297 [label=<squared_error = 0.0<br/>samples = 4<br/>value = 50.0>, fillcolor="#fefcfb"] ;
296 -> 297 ;
298 [label=<Order Item Product Price &le; 49.99<br/>squared_error = 0.0<br/>samples = 3<br/>value = 49.993>, fillcolor="#fefcfb"] ;
296 -> 298 ;
299 [label=<squared_error = 0.0<br/>samples = 1<br/>value = 49.98>, fillcolor="#fefcfb"] ;
298 -> 299 ;
300 [label=<squared_error = 0.0<br/>samples = 2<br/>value = 50.0>, fillcolor="#fefcfb"] ;
298 -> 300 ;
301 [label=<Product Image &le; 67.0<br/>squared_error = 0.871<br/>samples = 3<br/>value = 52.65>, fillcolor="#fefcfb"] ;
279 -> 301 ;
302 [label=<squared_error = 0.0<br/>samples = 1<br/>value = 53.97>, fillcolor="#fefcfb"] ;
301 -> 302 ;
303 [label=<squared_error = -0.0<br/>samples = 2<br/>value = 51.99>, fillcolor="#fefcfb"] ;
301 -> 303 ;
304 [label=<Order Item Discount &le; 9.44<br/>squared_error = 18.144<br/>samples = 287<br/>value = 50.656>, fillcolor="#fefcfb"] ;
222 -> 304 ;
305 [label=<Order Item Discount &le; 2.485<br/>squared_error = 5.938<br/>samples = 247<br/>value = 49.278>, fillcolor="#fefdfb"] ;
304 -> 305 ;
306 [label=<Sales per customer &le; 45.28<br/>squared_error = 5.507<br/>samples = 83<br/>value = 47.356>, fillcolor="#fffdfb"] ;
305 -> 306 ;
307 [label=<Category Name &le; 26.0<br/>squared_error = 0.218<br/>samples = 33<br/>value = 44.65>, fillcolor="#fffdfc"] ;
306 -> 307 ;
308 [label=<Product Price &le; 29.99<br/>squared_error = 0.0<br/>samples = 17<br/>value = 44.977>, fillcolor="#fffdfc"] ;
307 -> 308 ;
309 [label=<Order Item Discount &le; 0.225<br/>squared_error = 0.0<br/>samples = 11<br/>value = 44.97>, fillcolor="#fffdfc"] ;
308 -> 309 ;
310 [label=<squared_error = 0.0<br/>samples = 1<br/>value = 44.97>, fillcolor="#fffdfc"] ;
309 -> 310 ;
311 [label=<Sales per customer &le; 44.295<br/>squared_error = 0.0<br/>samples = 10<br/>value = 44.97>, fillcolor="#fffdfc"] ;
309 -> 311 ;
312 [label=<squared_error = 0.0<br/>samples = 8<br/>value = 44.97>, fillcolor="#fffdfc"] ;
311 -> 312 ;
313 [label=<Product Name &le; 38.5<br/>squared_error = 0.0<br/>samples = 2<br/>value = 44.97>, fillcolor="#fffdfc"] ;
311 -> 313 ;
314 [label=<squared_error = 0.0<br/>samples = 1<br/>value = 44.97>, fillcolor="#fffdfc"] ;
313 -> 314 ;
315 [label=<squared_error = 0.0<br/>samples = 1<br/>value = 44.97>, fillcolor="#fffdfc"] ;
313 -> 315 ;
316 [label=<Sales per customer &le; 42.855<br/>squared_error = 0.0<br/>samples = 6<br/>value = 44.99>, fillcolor="#fffdfc"] ;
308 -> 316 ;
317 [label=<squared_error = 0.0<br/>samples = 1<br/>value = 44.99>, fillcolor="#fffdfc"] ;
316 -> 317 ;
318 [label=<Order Item Discount &le; 0.225<br/>squared_error = 0.0<br/>samples = 5<br/>value = 44.99>, fillcolor="#fffdfc"] ;
316 -> 318 ;
319 [label=<squared_error = 0.0<br/>samples = 1<br/>value = 44.99>, fillcolor="#fffdfc"] ;
318 -> 319 ;
320 [label=<squared_error = 0.0<br/>samples = 4<br/>value = 44.99>, fillcolor="#fffdfc"] ;
318 -> 320 ;
321 [label=<Product Name &le; 55.5<br/>squared_error = 0.215<br/>samples = 16<br/>value = 44.303>, fillcolor="#fffdfc"] ;
307 -> 321 ;
322 [label=<Order Item Product Price &le; 21.995<br/>squared_error = 0.0<br/>samples = 11<br/>value = 43.991>, fillcolor="#fffdfc"] ;
321 -> 322 ;
323 [label=<squared_error = 0.0<br/>samples = 5<br/>value = 43.98>, fillcolor="#fffdfc"] ;
322 -> 323 ;
324 [label=<Order Item Total &le; 41.69<br/>squared_error = 0.0<br/>samples = 6<br/>value = 44.0>, fillcolor="#fffdfc"] ;
322 -> 324 ;
325 [label=<squared_error = 0.0<br/>samples = 1<br/>value = 44.0>, fillcolor="#fffdfc"] ;
324 -> 325 ;
326 [label=<squared_error = 0.0<br/>samples = 5<br/>value = 44.0>, fillcolor="#fffdfc"] ;
324 -> 326 ;
327 [label=<Sales per customer &le; 42.63<br/>squared_error = 0.0<br/>samples = 5<br/>value = 44.99>, fillcolor="#fffdfc"] ;
321 -> 327 ;
328 [label=<squared_error = 0.0<br/>samples = 1<br/>value = 44.99>, fillcolor="#fffdfc"] ;
327 -> 328 ;
329 [label=<squared_error = 0.0<br/>samples = 4<br/>value = 44.99>, fillcolor="#fffdfc"] ;
327 -> 329 ;
330 [label=<Sales per customer &le; 47.975<br/>squared_error = 0.979<br/>samples = 50<br/>value = 49.141>, fillcolor="#fefdfb"] ;
306 -> 330 ;
331 [label=<Order Item Product Price &le; 12.99<br/>squared_error = 0.185<br/>samples = 20<br/>value = 48.076>, fillcolor="#fffdfb"] ;
330 -> 331 ;
332 [label=<squared_error = 0.0<br/>samples = 1<br/>value = 49.95>, fillcolor="#fefcfb"] ;
331 -> 332 ;
333 [label=<Product Price &le; 31.99<br/>squared_error = 0.0<br/>samples = 19<br/>value = 47.977>, fillcolor="#fffdfb"] ;
331 -> 333 ;
334 [label=<Sales per customer &le; 46.29<br/>squared_error = 0.0<br/>samples = 12<br/>value = 47.97>, fillcolor="#fffdfb"] ;
333 -> 334 ;
335 [label=<squared_error = 0.0<br/>samples = 4<br/>value = 47.97>, fillcolor="#fffdfb"] ;
334 -> 335 ;
336 [label=<Product Name &le; 31.5<br/>squared_error = 0.0<br/>samples = 8<br/>value = 47.97>, fillcolor="#fffdfb"] ;
334 -> 336 ;
337 [label=<squared_error = 0.0<br/>samples = 4<br/>value = 47.97>, fillcolor="#fffdfb"] ;
336 -> 337 ;
338 [label=<squared_error = 0.0<br/>samples = 4<br/>value = 47.97>, fillcolor="#fffdfb"] ;
336 -> 338 ;
339 [label=<Order Item Discount &le; 0.72<br/>squared_error = 0.0<br/>samples = 7<br/>value = 47.99>, fillcolor="#fffdfb"] ;
333 -> 339 ;
340 [label=<squared_error = 0.0<br/>samples = 1<br/>value = 47.99>, fillcolor="#fffdfb"] ;
339 -> 340 ;
341 [label=<squared_error = 0.0<br/>samples = 6<br/>value = 47.99>, fillcolor="#fffdfb"] ;
339 -> 341 ;
342 [label=<Order Item Discount &le; 0.5<br/>squared_error = 0.248<br/>samples = 30<br/>value = 49.851>, fillcolor="#fefcfb"] ;
330 -> 342 ;
343 [label=<squared_error = 0.0<br/>samples = 2<br/>value = 47.99>, fillcolor="#fffdfb"] ;
342 -> 343 ;
344 [label=<Order Item Product Price &le; 24.995<br/>squared_error = 0.0<br/>samples = 28<br/>value = 49.984>, fillcolor="#fefcfb"] ;
342 -> 344 ;
345 [label=<Order Item Product Price &le; 17.49<br/>squared_error = 0.0<br/>samples = 18<br/>value = 49.977>, fillcolor="#fefcfb"] ;
344 -> 345 ;
346 [label=<squared_error = 0.0<br/>samples = 2<br/>value = 49.95>, fillcolor="#fefcfb"] ;
345 -> 346 ;
347 [label=<squared_error = -0.0<br/>samples = 16<br/>value = 49.98>, fillcolor="#fefcfb"] ;
345 -> 347 ;
348 [label=<Sales per customer &le; 48.49<br/>squared_error = 0.0<br/>samples = 10<br/>value = 49.998>, fillcolor="#fefcfb"] ;
344 -> 348 ;
349 [label=<Order Item Total &le; 48.24<br/>squared_error = 0.0<br/>samples = 4<br/>value = 49.995>, fillcolor="#fefcfb"] ;
348 -> 349 ;
350 [label=<squared_error = 0.0<br/>samples = 3<br/>value = 50.0>, fillcolor="#fefcfb"] ;
349 -> 350 ;
351 [label=<squared_error = 0.0<br/>samples = 1<br/>value = 49.98>, fillcolor="#fefcfb"] ;
349 -> 351 ;
352 [label=<squared_error = 0.0<br/>samples = 6<br/>value = 50.0>, fillcolor="#fefcfb"] ;
348 -> 352 ;
353 [label=<Product Price &le; 50.995<br/>squared_error = 3.341<br/>samples = 164<br/>value = 50.251>, fillcolor="#fefcfb"] ;
305 -> 353 ;
354 [label=<Sales per customer &le; 47.54<br/>squared_error = 2.734<br/>samples = 143<br/>value = 49.912>, fillcolor="#fefcfb"] ;
353 -> 354 ;
355 [label=<Product Price &le; 16.99<br/>squared_error = 2.025<br/>samples = 139<br/>value = 49.766>, fillcolor="#fefcfb"] ;
354 -> 355 ;
356 [label=<Product Image &le; 22.5<br/>squared_error = 2.118<br/>samples = 20<br/>value = 48.363>, fillcolor="#fefdfb"] ;
355 -> 356 ;
357 [label=<squared_error = -0.0<br/>samples = 7<br/>value = 49.95>, fillcolor="#fefcfb"] ;
356 -> 357 ;
358 [label=<Product Image &le; 35.0<br/>squared_error = 1.172<br/>samples = 13<br/>value = 47.508>, fillcolor="#fffdfb"] ;
356 -> 358 ;
359 [label=<Product Name &le; 31.5<br/>squared_error = 0.0<br/>samples = 11<br/>value = 47.97>, fillcolor="#fffdfb"] ;
358 -> 359 ;
360 [label=<squared_error = 0.0<br/>samples = 5<br/>value = 47.97>, fillcolor="#fffdfb"] ;
359 -> 360 ;
361 [label=<squared_error = 0.0<br/>samples = 6<br/>value = 47.97>, fillcolor="#fffdfb"] ;
359 -> 361 ;
362 [label=<Product Name &le; 38.5<br/>squared_error = 0.0<br/>samples = 2<br/>value = 44.97>, fillcolor="#fffdfc"] ;
358 -> 362 ;
363 [label=<squared_error = 0.0<br/>samples = 1<br/>value = 44.97>, fillcolor="#fffdfc"] ;
362 -> 363 ;
364 [label=<squared_error = 0.0<br/>samples = 1<br/>value = 44.97>, fillcolor="#fffdfc"] ;
362 -> 364 ;
365 [label=<Order Item Product Price &le; 21.49<br/>squared_error = 1.622<br/>samples = 119<br/>value = 50.002>, fillcolor="#fefcfb"] ;
355 -> 365 ;
366 [label=<Sales per customer &le; 45.6<br/>squared_error = 0.0<br/>samples = 5<br/>value = 53.97>, fillcolor="#fefcfb"] ;
365 -> 366 ;
367 [label=<squared_error = 0.0<br/>samples = 2<br/>value = 53.97>, fillcolor="#fefcfb"] ;
366 -> 367 ;
368 [label=<Order Item Discount &le; 6.75<br/>squared_error = 0.0<br/>samples = 3<br/>value = 53.97>, fillcolor="#fefcfb"] ;
366 -> 368 ;
369 [label=<squared_error = 0.0<br/>samples = 1<br/>value = 53.97>, fillcolor="#fefcfb"] ;
368 -> 369 ;
370 [label=<Sales per customer &le; 46.41<br/>squared_error = 0.0<br/>samples = 2<br/>value = 53.97>, fillcolor="#fefcfb"] ;
368 -> 370 ;
371 [label=<squared_error = 0.0<br/>samples = 1<br/>value = 53.97>, fillcolor="#fefcfb"] ;
370 -> 371 ;
372 [label=<squared_error = 0.0<br/>samples = 1<br/>value = 53.97>, fillcolor="#fefcfb"] ;
370 -> 372 ;
373 [label=<Order Item Product Price &le; 36.49<br/>squared_error = 0.973<br/>samples = 114<br/>value = 49.828>, fillcolor="#fefcfb"] ;
365 -> 373 ;
374 [label=<Product Price &le; 26.495<br/>squared_error = 0.413<br/>samples = 86<br/>value = 50.054>, fillcolor="#fefcfb"] ;
373 -> 374 ;
375 [label=<Order Item Product Price &le; 24.995<br/>squared_error = 0.0<br/>samples = 85<br/>value = 49.984>, fillcolor="#fefcfb"] ;
374 -> 375 ;
376 [label=<Product Image &le; 87.5<br/>squared_error = 0.0<br/>samples = 68<br/>value = 49.98>, fillcolor="#fefcfb"] ;
375 -> 376 ;
377 [label=<squared_error = -0.0<br/>samples = 25<br/>value = 49.98>, fillcolor="#fefcfb"] ;
376 -> 377 ;
378 [label=<Order Item Discount &le; 8.75<br/>squared_error = 0.0<br/>samples = 43<br/>value = 49.98>, fillcolor="#fefcfb"] ;
376 -> 378 ;
379 [label=<squared_error = -0.0<br/>samples = 40<br/>value = 49.98>, fillcolor="#fefcfb"] ;
378 -> 379 ;
380 [label=<Product Name &le; 89.0<br/>squared_error = 0.0<br/>samples = 3<br/>value = 49.98>, fillcolor="#fefcfb"] ;
378 -> 380 ;
381 [label=<squared_error = 0.0<br/>samples = 1<br/>value = 49.98>, fillcolor="#fefcfb"] ;
380 -> 381 ;
382 [label=<squared_error = -0.0<br/>samples = 2<br/>value = 49.98>, fillcolor="#fefcfb"] ;
380 -> 382 ;
383 [label=<Category Name &le; 24.5<br/>squared_error = 0.0<br/>samples = 17<br/>value = 50.0>, fillcolor="#fefcfb"] ;
375 -> 383 ;
384 [label=<squared_error = 0.0<br/>samples = 9<br/>value = 50.0>, fillcolor="#fefcfb"] ;
383 -> 384 ;
385 [label=<squared_error = 0.0<br/>samples = 8<br/>value = 50.0>, fillcolor="#fefcfb"] ;
383 -> 385 ;
386 [label=<squared_error = -0.0<br/>samples = 1<br/>value = 55.98>, fillcolor="#fefcfa"] ;
374 -> 386 ;
387 [label=<Order Item Product Price &le; 48.985<br/>squared_error = 2.053<br/>samples = 28<br/>value = 49.134>, fillcolor="#fefdfb"] ;
373 -> 387 ;
388 [label=<Sales per customer &le; 42.035<br/>squared_error = 1.556<br/>samples = 9<br/>value = 47.323>, fillcolor="#fffdfb"] ;
387 -> 388 ;
389 [label=<squared_error = 0.0<br/>samples = 2<br/>value = 44.99>, fillcolor="#fffdfc"] ;
388 -> 389 ;
390 [label=<Order Item Discount &le; 3.0<br/>squared_error = 0.0<br/>samples = 7<br/>value = 47.99>, fillcolor="#fffdfb"] ;
388 -> 390 ;
391 [label=<squared_error = 0.0<br/>samples = 1<br/>value = 47.99>, fillcolor="#fffdfb"] ;
390 -> 391 ;
392 [label=<squared_error = 0.0<br/>samples = 6<br/>value = 47.99>, fillcolor="#fffdfb"] ;
390 -> 392 ;
393 [label=<Product Price &le; 49.99<br/>squared_error = 0.0<br/>samples = 19<br/>value = 49.992>, fillcolor="#fefcfb"] ;
387 -> 393 ;
394 [label=<squared_error = 0.0<br/>samples = 8<br/>value = 49.98>, fillcolor="#fefcfb"] ;
393 -> 394 ;
395 [label=<squared_error = -0.0<br/>samples = 11<br/>value = 50.0>, fillcolor="#fefcfb"] ;
393 -> 395 ;
396 [label=<Product Name &le; 72.0<br/>squared_error = 1.01<br/>samples = 4<br/>value = 54.975>, fillcolor="#fefcfb"] ;
354 -> 396 ;
397 [label=<squared_error = 0.0<br/>samples = 2<br/>value = 53.97>, fillcolor="#fefcfb"] ;
396 -> 397 ;
398 [label=<Sales per customer &le; 48.14<br/>squared_error = 0.0<br/>samples = 2<br/>value = 55.98>, fillcolor="#fefcfa"] ;
396 -> 398 ;
399 [label=<squared_error = 0.0<br/>samples = 1<br/>value = 55.98>, fillcolor="#fefcfa"] ;
398 -> 399 ;
400 [label=<squared_error = 0.0<br/>samples = 1<br/>value = 55.98>, fillcolor="#fefcfa"] ;
398 -> 400 ;
401 [label=<Category Name &le; 11.5<br/>squared_error = 1.369<br/>samples = 21<br/>value = 52.558>, fillcolor="#fefcfb"] ;
353 -> 401 ;
402 [label=<squared_error = 0.0<br/>samples = 4<br/>value = 54.97>, fillcolor="#fefcfb"] ;
401 -> 402 ;
403 [label=<Order Item Discount &le; 3.25<br/>squared_error = 0.0<br/>samples = 17<br/>value = 51.99>, fillcolor="#fefcfb"] ;
401 -> 403 ;
404 [label=<squared_error = 0.0<br/>samples = 2<br/>value = 51.99>, fillcolor="#fefcfb"] ;
403 -> 404 ;
405 [label=<Order Item Discount &le; 4.16<br/>squared_error = 0.0<br/>samples = 15<br/>value = 51.99>, fillcolor="#fefcfb"] ;
403 -> 405 ;
406 [label=<squared_error = 0.0<br/>samples = 2<br/>value = 51.99>, fillcolor="#fefcfb"] ;
405 -> 406 ;
407 [label=<Product Name &le; 95.5<br/>squared_error = 0.0<br/>samples = 13<br/>value = 51.99>, fillcolor="#fefcfb"] ;
405 -> 407 ;
408 [label=<squared_error = 0.0<br/>samples = 6<br/>value = 51.99>, fillcolor="#fefcfb"] ;
407 -> 408 ;
409 [label=<Order Item Total &le; 42.89<br/>squared_error = 0.0<br/>samples = 7<br/>value = 51.99>, fillcolor="#fefcfb"] ;
407 -> 409 ;
410 [label=<squared_error = 0.0<br/>samples = 1<br/>value = 51.99>, fillcolor="#fefcfb"] ;
409 -> 410 ;
411 [label=<squared_error = 0.0<br/>samples = 6<br/>value = 51.99>, fillcolor="#fefcfb"] ;
409 -> 411 ;
412 [label=<Order Item Total &le; 44.285<br/>squared_error = 9.386<br/>samples = 40<br/>value = 59.165>, fillcolor="#fefcfa"] ;
304 -> 412 ;
413 [label=<Product Image &le; 100.5<br/>squared_error = 2.313<br/>samples = 6<br/>value = 53.978>, fillcolor="#fefcfb"] ;
412 -> 413 ;
414 [label=<Order Item Product Price &le; 34.99<br/>squared_error = 0.871<br/>samples = 3<br/>value = 52.65>, fillcolor="#fefcfb"] ;
413 -> 414 ;
415 [label=<squared_error = 0.0<br/>samples = 1<br/>value = 53.97>, fillcolor="#fefcfb"] ;
414 -> 415 ;
416 [label=<squared_error = -0.0<br/>samples = 2<br/>value = 51.99>, fillcolor="#fefcfb"] ;
414 -> 416 ;
417 [label=<Product Name &le; 106.5<br/>squared_error = 0.227<br/>samples = 3<br/>value = 55.307>, fillcolor="#fefcfa"] ;
413 -> 417 ;
418 [label=<squared_error = 0.0<br/>samples = 1<br/>value = 55.98>, fillcolor="#fefcfa"] ;
417 -> 418 ;
419 [label=<squared_error = -0.0<br/>samples = 2<br/>value = 54.97>, fillcolor="#fefcfb"] ;
417 -> 419 ;
420 [label=<Order Item Discount &le; 15.495<br/>squared_error = 5.05<br/>samples = 34<br/>value = 60.08>, fillcolor="#fefcfa"] ;
412 -> 420 ;
421 [label=<Order Item Discount &le; 11.51<br/>squared_error = 2.187<br/>samples = 28<br/>value = 59.246>, fillcolor="#fefcfa"] ;
420 -> 421 ;
422 [label=<Category Name &le; 4.0<br/>squared_error = 2.625<br/>samples = 6<br/>value = 56.845>, fillcolor="#fefcfa"] ;
421 -> 422 ;
423 [label=<squared_error = 0.0<br/>samples = 2<br/>value = 59.08>, fillcolor="#fefcfa"] ;
422 -> 423 ;
424 [label=<Product Image &le; 106.5<br/>squared_error = 0.191<br/>samples = 4<br/>value = 55.727>, fillcolor="#fefcfa"] ;
422 -> 424 ;
425 [label=<Order Item Discount &le; 9.8<br/>squared_error = 0.0<br/>samples = 3<br/>value = 55.98>, fillcolor="#fefcfa"] ;
424 -> 425 ;
426 [label=<squared_error = 0.0<br/>samples = 1<br/>value = 55.98>, fillcolor="#fefcfa"] ;
425 -> 426 ;
427 [label=<squared_error = -0.0<br/>samples = 2<br/>value = 55.98>, fillcolor="#fefcfa"] ;
425 -> 427 ;
428 [label=<squared_error = -0.0<br/>samples = 1<br/>value = 54.97>, fillcolor="#fefcfb"] ;
424 -> 428 ;
429 [label=<Category Name &le; 2.5<br/>squared_error = 0.068<br/>samples = 22<br/>value = 59.9>, fillcolor="#fefcfa"] ;
421 -> 429 ;
430 [label=<squared_error = 0.0<br/>samples = 2<br/>value = 59.08>, fillcolor="#fefcfa"] ;
429 -> 430 ;
431 [label=<Order Item Product Price &le; 29.995<br/>squared_error = 0.0<br/>samples = 20<br/>value = 59.983>, fillcolor="#fefcfa"] ;
429 -> 431 ;
432 [label=<Order Item Product Price &le; 17.49<br/>squared_error = 0.0<br/>samples = 10<br/>value = 59.969>, fillcolor="#fefcfa"] ;
431 -> 432 ;
433 [label=<squared_error = -0.0<br/>samples = 3<br/>value = 59.96>, fillcolor="#fefcfa"] ;
432 -> 433 ;
434 [label=<Product Image &le; 27.5<br/>squared_error = 0.0<br/>samples = 7<br/>value = 59.973>, fillcolor="#fefcfa"] ;
432 -> 434 ;
435 [label=<squared_error = 0.0<br/>samples = 2<br/>value = 59.98>, fillcolor="#fefcfa"] ;
434 -> 435 ;
436 [label=<Sales per customer &le; 46.48<br/>squared_error = 0.0<br/>samples = 5<br/>value = 59.97>, fillcolor="#fefcfa"] ;
434 -> 436 ;
437 [label=<squared_error = 0.0<br/>samples = 2<br/>value = 59.97>, fillcolor="#fefcfa"] ;
436 -> 437 ;
438 [label=<Category Name &le; 23.0<br/>squared_error = 0.0<br/>samples = 3<br/>value = 59.97>, fillcolor="#fefcfa"] ;
436 -> 438 ;
439 [label=<squared_error = 0.0<br/>samples = 1<br/>value = 59.97>, fillcolor="#fefcfa"] ;
438 -> 439 ;
440 [label=<squared_error = -0.0<br/>samples = 2<br/>value = 59.97>, fillcolor="#fefcfa"] ;
438 -> 440 ;
441 [label=<Product Image &le; 68.5<br/>squared_error = 0.0<br/>samples = 10<br/>value = 59.996>, fillcolor="#fefcfa"] ;
431 -> 441 ;
442 [label=<squared_error = -0.0<br/>samples = 6<br/>value = 60.0>, fillcolor="#fefcfa"] ;
441 -> 442 ;
443 [label=<Product Name &le; 92.5<br/>squared_error = 0.0<br/>samples = 4<br/>value = 59.99>, fillcolor="#fefcfa"] ;
441 -> 443 ;
444 [label=<squared_error = 0.0<br/>samples = 2<br/>value = 59.99>, fillcolor="#fefcfa"] ;
443 -> 444 ;
445 [label=<squared_error = 0.0<br/>samples = 2<br/>value = 59.99>, fillcolor="#fefcfa"] ;
443 -> 445 ;
446 [label=<Sales per customer &le; 47.98<br/>squared_error = 0.0<br/>samples = 6<br/>value = 63.973>, fillcolor="#fefcfa"] ;
420 -> 446 ;
447 [label=<squared_error = 0.0<br/>samples = 2<br/>value = 63.96>, fillcolor="#fefcfa"] ;
446 -> 447 ;
448 [label=<squared_error = -0.0<br/>samples = 4<br/>value = 63.98>, fillcolor="#fefcfa"] ;
446 -> 448 ;
449 [label=<Order Item Discount &le; 5.68<br/>squared_error = 26.303<br/>samples = 283<br/>value = 60.553>, fillcolor="#fefcfa"] ;
221 -> 449 ;
450 [label=<Order Item Total &le; 54.49<br/>squared_error = 15.275<br/>samples = 127<br/>value = 56.947>, fillcolor="#fefcfa"] ;
449 -> 450 ;
451 [label=<Order Item Discount &le; 0.535<br/>squared_error = 5.134<br/>samples = 47<br/>value = 52.278>, fillcolor="#fefcfb"] ;
450 -> 451 ;
452 [label=<Sales per customer &le; 50.735<br/>squared_error = 0.476<br/>samples = 22<br/>value = 50.254>, fillcolor="#fefcfb"] ;
451 -> 452 ;
453 [label=<Order Item Product Price &le; 17.49<br/>squared_error = 0.0<br/>samples = 19<br/>value = 49.98>, fillcolor="#fefcfb"] ;
452 -> 453 ;
454 [label=<squared_error = 0.0<br/>samples = 2<br/>value = 49.95>, fillcolor="#fefcfb"] ;
453 -> 454 ;
455 [label=<Order Item Total &le; 49.99<br/>squared_error = 0.0<br/>samples = 17<br/>value = 49.984>, fillcolor="#fefcfb"] ;
453 -> 455 ;
456 [label=<squared_error = 0.0<br/>samples = 14<br/>value = 49.98>, fillcolor="#fefcfb"] ;
455 -> 456 ;
457 [label=<squared_error = 0.0<br/>samples = 3<br/>value = 50.0>, fillcolor="#fefcfb"] ;
455 -> 457 ;
458 [label=<squared_error = -0.0<br/>samples = 3<br/>value = 51.99>, fillcolor="#fefcfb"] ;
452 -> 458 ;
459 [label=<Product Name &le; 100.5<br/>squared_error = 2.456<br/>samples = 25<br/>value = 54.059>, fillcolor="#fefcfb"] ;
451 -> 459 ;
460 [label=<Product Price &le; 34.99<br/>squared_error = 0.928<br/>samples = 13<br/>value = 52.752>, fillcolor="#fefcfb"] ;
459 -> 460 ;
461 [label=<Order Item Total &le; 51.54<br/>squared_error = 0.0<br/>samples = 5<br/>value = 53.97>, fillcolor="#fefcfb"] ;
460 -> 461 ;
462 [label=<squared_error = 0.0<br/>samples = 2<br/>value = 53.97>, fillcolor="#fefcfb"] ;
461 -> 462 ;
463 [label=<Order Item Total &le; 52.08<br/>squared_error = 0.0<br/>samples = 3<br/>value = 53.97>, fillcolor="#fefcfb"] ;
461 -> 463 ;
464 [label=<squared_error = 0.0<br/>samples = 1<br/>value = 53.97>, fillcolor="#fefcfb"] ;
463 -> 464 ;
465 [label=<Sales per customer &le; 52.62<br/>squared_error = 0.0<br/>samples = 2<br/>value = 53.97>, fillcolor="#fefcfb"] ;
463 -> 465 ;
466 [label=<squared_error = 0.0<br/>samples = 1<br/>value = 53.97>, fillcolor="#fefcfb"] ;
465 -> 466 ;
467 [label=<squared_error = 0.0<br/>samples = 1<br/>value = 53.97>, fillcolor="#fefcfb"] ;
465 -> 467 ;
468 [label=<Product Name &le; 95.5<br/>squared_error = 0.0<br/>samples = 8<br/>value = 51.99>, fillcolor="#fefcfb"] ;
460 -> 468 ;
469 [label=<squared_error = 0.0<br/>samples = 4<br/>value = 51.99>, fillcolor="#fefcfb"] ;
468 -> 469 ;
470 [label=<Order Item Discount &le; 2.34<br/>squared_error = 0.0<br/>samples = 4<br/>value = 51.99>, fillcolor="#fefcfb"] ;
468 -> 470 ;
471 [label=<squared_error = 0.0<br/>samples = 3<br/>value = 51.99>, fillcolor="#fefcfb"] ;
470 -> 471 ;
472 [label=<squared_error = -0.0<br/>samples = 1<br/>value = 51.99>, fillcolor="#fefcfb"] ;
470 -> 472 ;
473 [label=<Category Name &le; 11.5<br/>squared_error = 0.255<br/>samples = 12<br/>value = 55.475>, fillcolor="#fefcfa"] ;
459 -> 473 ;
474 [label=<Order Item Discount &le; 0.825<br/>squared_error = 0.0<br/>samples = 6<br/>value = 54.97>, fillcolor="#fefcfb"] ;
473 -> 474 ;
475 [label=<squared_error = 0.0<br/>samples = 1<br/>value = 54.97>, fillcolor="#fefcfb"] ;
474 -> 475 ;
476 [label=<Sales per customer &le; 51.535<br/>squared_error = 0.0<br/>samples = 5<br/>value = 54.97>, fillcolor="#fefcfb"] ;
474 -> 476 ;
477 [label=<Order Item Total &le; 49.745<br/>squared_error = 0.0<br/>samples = 3<br/>value = 54.97>, fillcolor="#fefcfb"] ;
476 -> 477 ;
478 [label=<squared_error = 0.0<br/>samples = 1<br/>value = 54.97>, fillcolor="#fefcfb"] ;
477 -> 478 ;
479 [label=<squared_error = 0.0<br/>samples = 2<br/>value = 54.97>, fillcolor="#fefcfb"] ;
477 -> 479 ;
480 [label=<squared_error = 0.0<br/>samples = 2<br/>value = 54.97>, fillcolor="#fefcfb"] ;
476 -> 480 ;
481 [label=<Order Item Discount &le; 1.96<br/>squared_error = 0.0<br/>samples = 6<br/>value = 55.98>, fillcolor="#fefcfa"] ;
473 -> 481 ;
482 [label=<squared_error = 0.0<br/>samples = 1<br/>value = 55.98>, fillcolor="#fefcfa"] ;
481 -> 482 ;
483 [label=<squared_error = -0.0<br/>samples = 5<br/>value = 55.98>, fillcolor="#fefcfa"] ;
481 -> 483 ;
484 [label=<Order Item Discount &le; 0.575<br/>squared_error = 0.901<br/>samples = 80<br/>value = 59.69>, fillcolor="#fefcfa"] ;
450 -> 484 ;
485 [label=<Sales per customer &le; 57.53<br/>squared_error = 2.385<br/>samples = 4<br/>value = 56.503>, fillcolor="#fefcfa"] ;
484 -> 485 ;
486 [label=<Order Item Product Price &le; 41.48<br/>squared_error = 0.227<br/>samples = 3<br/>value = 55.643>, fillcolor="#fefcfa"] ;
485 -> 486 ;
487 [label=<squared_error = -0.0<br/>samples = 2<br/>value = 55.98>, fillcolor="#fefcfa"] ;
486 -> 487 ;
488 [label=<squared_error = 0.0<br/>samples = 1<br/>value = 54.97>, fillcolor="#fefcfb"] ;
486 -> 488 ;
489 [label=<squared_error = 0.0<br/>samples = 1<br/>value = 59.08>, fillcolor="#fefcfa"] ;
485 -> 489 ;
490 [label=<Category Name &le; 2.5<br/>squared_error = 0.26<br/>samples = 76<br/>value = 59.858>, fillcolor="#fefcfa"] ;
484 -> 490 ;
491 [label=<squared_error = -0.0<br/>samples = 6<br/>value = 59.08>, fillcolor="#fefcfa"] ;
490 -> 491 ;
492 [label=<Product Name &le; 101.5<br/>squared_error = 0.226<br/>samples = 70<br/>value = 59.924>, fillcolor="#fefcfa"] ;
490 -> 492 ;
493 [label=<Product Price &le; 29.995<br/>squared_error = 0.0<br/>samples = 63<br/>value = 59.981>, fillcolor="#fefcfa"] ;
492 -> 493 ;
494 [label=<Product Price &le; 17.49<br/>squared_error = 0.0<br/>samples = 35<br/>value = 59.968>, fillcolor="#fefcfa"] ;
493 -> 494 ;
495 [label=<squared_error = 0.0<br/>samples = 12<br/>value = 59.96>, fillcolor="#fefcfa"] ;
494 -> 495 ;
496 [label=<Category Name &le; 26.5<br/>squared_error = 0.0<br/>samples = 23<br/>value = 59.972>, fillcolor="#fefcfa"] ;
494 -> 496 ;
497 [label=<squared_error = 0.0<br/>samples = 19<br/>value = 59.97>, fillcolor="#fefcfa"] ;
496 -> 497 ;
498 [label=<squared_error = -0.0<br/>samples = 4<br/>value = 59.98>, fillcolor="#fefcfa"] ;
496 -> 498 ;
499 [label=<Order Item Product Price &le; 44.995<br/>squared_error = 0.0<br/>samples = 28<br/>value = 59.997>, fillcolor="#fefcfa"] ;
493 -> 499 ;
500 [label=<squared_error = 0.0<br/>samples = 20<br/>value = 60.0>, fillcolor="#fefcfa"] ;
499 -> 500 ;
501 [label=<Sales per customer &le; 55.19<br/>squared_error = 0.0<br/>samples = 8<br/>value = 59.99>, fillcolor="#fefcfa"] ;
499 -> 501 ;
502 [label=<squared_error = 0.0<br/>samples = 1<br/>value = 59.99>, fillcolor="#fefcfa"] ;
501 -> 502 ;
503 [label=<Sales per customer &le; 56.24<br/>squared_error = 0.0<br/>samples = 7<br/>value = 59.99>, fillcolor="#fefcfa"] ;
501 -> 503 ;
504 [label=<squared_error = 0.0<br/>samples = 1<br/>value = 59.99>, fillcolor="#fefcfa"] ;
503 -> 504 ;
505 [label=<Order Item Discount &le; 0.9<br/>squared_error = 0.0<br/>samples = 6<br/>value = 59.99>, fillcolor="#fefcfa"] ;
503 -> 505 ;
506 [label=<squared_error = 0.0<br/>samples = 1<br/>value = 59.99>, fillcolor="#fefcfa"] ;
505 -> 506 ;
507 [label=<squared_error = 0.0<br/>samples = 5<br/>value = 59.99>, fillcolor="#fefcfa"] ;
505 -> 507 ;
508 [label=<Product Price &le; 43.99<br/>squared_error = 1.969<br/>samples = 7<br/>value = 59.417>, fillcolor="#fefcfa"] ;
492 -> 508 ;
509 [label=<squared_error = 0.0<br/>samples = 1<br/>value = 55.98>, fillcolor="#fefcfa"] ;
508 -> 509 ;
510 [label=<Order Item Total &le; 55.64<br/>squared_error = 0.0<br/>samples = 6<br/>value = 59.99>, fillcolor="#fefcfa"] ;
508 -> 510 ;
511 [label=<squared_error = 0.0<br/>samples = 1<br/>value = 59.99>, fillcolor="#fefcfa"] ;
510 -> 511 ;
512 [label=<squared_error = 0.0<br/>samples = 5<br/>value = 59.99>, fillcolor="#fefcfa"] ;
510 -> 512 ;
513 [label=<Order Item Discount &le; 11.125<br/>squared_error = 16.072<br/>samples = 156<br/>value = 63.489>, fillcolor="#fefcfa"] ;
449 -> 513 ;
514 [label=<Order Item Total &le; 52.945<br/>squared_error = 4.919<br/>samples = 117<br/>value = 61.788>, fillcolor="#fefcfa"] ;
513 -> 514 ;
515 [label=<Category Name &le; 2.5<br/>squared_error = 0.053<br/>samples = 57<br/>value = 59.918>, fillcolor="#fefcfa"] ;
514 -> 515 ;
516 [label=<squared_error = 0.0<br/>samples = 4<br/>value = 59.08>, fillcolor="#fefcfa"] ;
515 -> 516 ;
517 [label=<Order Item Product Price &le; 29.995<br/>squared_error = 0.0<br/>samples = 53<br/>value = 59.982>, fillcolor="#fefcfa"] ;
515 -> 517 ;
518 [label=<Order Item Product Price &le; 17.49<br/>squared_error = 0.0<br/>samples = 27<br/>value = 59.968>, fillcolor="#fefcfa"] ;
517 -> 518 ;
519 [label=<squared_error = -0.0<br/>samples = 9<br/>value = 59.96>, fillcolor="#fefcfa"] ;
518 -> 519 ;
520 [label=<Order Item Product Price &le; 24.99<br/>squared_error = 0.0<br/>samples = 18<br/>value = 59.972>, fillcolor="#fefcfa"] ;
518 -> 520 ;
521 [label=<squared_error = 0.0<br/>samples = 15<br/>value = 59.97>, fillcolor="#fefcfa"] ;
520 -> 521 ;
522 [label=<squared_error = -0.0<br/>samples = 3<br/>value = 59.98>, fillcolor="#fefcfa"] ;
520 -> 522 ;
523 [label=<Product Image &le; 68.5<br/>squared_error = 0.0<br/>samples = 26<br/>value = 59.996>, fillcolor="#fefcfa"] ;
517 -> 523 ;
524 [label=<squared_error = 0.0<br/>samples = 16<br/>value = 60.0>, fillcolor="#fefcfa"] ;
523 -> 524 ;
525 [label=<squared_error = -0.0<br/>samples = 10<br/>value = 59.99>, fillcolor="#fefcfa"] ;
523 -> 525 ;
526 [label=<Order Item Discount &le; 6.2<br/>squared_error = 3.068<br/>samples = 60<br/>value = 63.563>, fillcolor="#fefcfa"] ;
514 -> 526 ;
527 [label=<Order Item Total &le; 56.1<br/>squared_error = 4.345<br/>samples = 16<br/>value = 61.484>, fillcolor="#fefcfa"] ;
526 -> 527 ;
528 [label=<Order Item Total &le; 53.565<br/>squared_error = 0.073<br/>samples = 10<br/>value = 59.888>, fillcolor="#fefcfa"] ;
527 -> 528 ;
529 [label=<squared_error = 0.0<br/>samples = 1<br/>value = 59.08>, fillcolor="#fefcfa"] ;
528 -> 529 ;
530 [label=<Order Item Total &le; 53.985<br/>squared_error = 0.0<br/>samples = 9<br/>value = 59.978>, fillcolor="#fefcfa"] ;
528 -> 530 ;
531 [label=<Sales per customer &le; 53.965<br/>squared_error = 0.0<br/>samples = 6<br/>value = 59.968>, fillcolor="#fefcfa"] ;
530 -> 531 ;
532 [label=<squared_error = 0.0<br/>samples = 2<br/>value = 59.96>, fillcolor="#fefcfa"] ;
531 -> 532 ;
533 [label=<Order Item Total &le; 53.975<br/>squared_error = 0.0<br/>samples = 4<br/>value = 59.973>, fillcolor="#fefcfa"] ;
531 -> 533 ;
534 [label=<squared_error = -0.0<br/>samples = 3<br/>value = 59.97>, fillcolor="#fefcfa"] ;
533 -> 534 ;
535 [label=<squared_error = 0.0<br/>samples = 1<br/>value = 59.98>, fillcolor="#fefcfa"] ;
533 -> 535 ;
536 [label=<Category Name &le; 6.5<br/>squared_error = 0.0<br/>samples = 3<br/>value = 59.997>, fillcolor="#fefcfa"] ;
530 -> 536 ;
537 [label=<squared_error = 0.0<br/>samples = 1<br/>value = 59.99>, fillcolor="#fefcfa"] ;
536 -> 537 ;
538 [label=<Category Name &le; 24.0<br/>squared_error = 0.0<br/>samples = 2<br/>value = 60.0>, fillcolor="#fefcfa"] ;
536 -> 538 ;
539 [label=<squared_error = 0.0<br/>samples = 1<br/>value = 60.0>, fillcolor="#fefcfa"] ;
538 -> 539 ;
540 [label=<squared_error = 0.0<br/>samples = 1<br/>value = 60.0>, fillcolor="#fefcfa"] ;
538 -> 540 ;
541 [label=<Order Item Discount &le; 5.805<br/>squared_error = 0.147<br/>samples = 6<br/>value = 64.143>, fillcolor="#fefcfa"] ;
527 -> 541 ;
542 [label=<Category Name &le; 30.5<br/>squared_error = 0.0<br/>samples = 5<br/>value = 63.972>, fillcolor="#fefcfa"] ;
541 -> 542 ;
543 [label=<squared_error = -0.0<br/>samples = 3<br/>value = 63.98>, fillcolor="#fefcfa"] ;
542 -> 543 ;
544 [label=<Product Name &le; 31.5<br/>squared_error = 0.0<br/>samples = 2<br/>value = 63.96>, fillcolor="#fefcfa"] ;
542 -> 544 ;
545 [label=<squared_error = 0.0<br/>samples = 1<br/>value = 63.96>, fillcolor="#fefcfa"] ;
544 -> 545 ;
546 [label=<squared_error = 0.0<br/>samples = 1<br/>value = 63.96>, fillcolor="#fefcfa"] ;
544 -> 546 ;
547 [label=<squared_error = 0.0<br/>samples = 1<br/>value = 65.0>, fillcolor="#fefcfa"] ;
541 -> 547 ;
548 [label=<Category Name &le; 21.5<br/>squared_error = 0.458<br/>samples = 44<br/>value = 64.32>, fillcolor="#fefcfa"] ;
526 -> 548 ;
549 [label=<Product Image &le; 5.5<br/>squared_error = 0.0<br/>samples = 26<br/>value = 63.98>, fillcolor="#fefcfa"] ;
548 -> 549 ;
550 [label=<squared_error = 0.0<br/>samples = 6<br/>value = 63.98>, fillcolor="#fefcfa"] ;
549 -> 550 ;
551 [label=<squared_error = -0.0<br/>samples = 20<br/>value = 63.98>, fillcolor="#fefcfa"] ;
549 -> 551 ;
552 [label=<Order Item Product Price &le; 18.99<br/>squared_error = 0.713<br/>samples = 18<br/>value = 64.811>, fillcolor="#fefcfa"] ;
548 -> 552 ;
553 [label=<Order Item Total &le; 55.01<br/>squared_error = 0.0<br/>samples = 8<br/>value = 63.96>, fillcolor="#fefcfa"] ;
552 -> 553 ;
554 [label=<squared_error = -0.0<br/>samples = 5<br/>value = 63.96>, fillcolor="#fefcfa"] ;
553 -> 554 ;
555 [label=<Order Item Discount &le; 7.995<br/>squared_error = 0.0<br/>samples = 3<br/>value = 63.96>, fillcolor="#fefcfa"] ;
553 -> 555 ;
556 [label=<squared_error = 0.0<br/>samples = 1<br/>value = 63.96>, fillcolor="#fefcfa"] ;
555 -> 556 ;
557 [label=<squared_error = -0.0<br/>samples = 2<br/>value = 63.96>, fillcolor="#fefcfa"] ;
555 -> 557 ;
558 [label=<Category Name &le; 27.0<br/>squared_error = 0.241<br/>samples = 10<br/>value = 65.491>, fillcolor="#fefbf9"] ;
552 -> 558 ;
559 [label=<squared_error = 0.0<br/>samples = 5<br/>value = 65.0>, fillcolor="#fefcfa"] ;
558 -> 559 ;
560 [label=<Category Name &le; 36.0<br/>squared_error = 0.0<br/>samples = 5<br/>value = 65.982>, fillcolor="#fefbf9"] ;
558 -> 560 ;
561 [label=<squared_error = 0.0<br/>samples = 2<br/>value = 66.0>, fillcolor="#fefbf9"] ;
560 -> 561 ;
562 [label=<squared_error = -0.0<br/>samples = 3<br/>value = 65.97>, fillcolor="#fefbf9"] ;
560 -> 562 ;
563 [label=<Sales per customer &le; 55.38<br/>squared_error = 14.781<br/>samples = 39<br/>value = 68.595>, fillcolor="#fefbf9"] ;
513 -> 563 ;
564 [label=<Order Item Discount &le; 17.0<br/>squared_error = 5.972<br/>samples = 21<br/>value = 65.791>, fillcolor="#fefbf9"] ;
563 -> 564 ;
565 [label=<Order Item Total &le; 52.63<br/>squared_error = 0.815<br/>samples = 17<br/>value = 64.688>, fillcolor="#fefcfa"] ;
564 -> 565 ;
566 [label=<Order Item Discount &le; 12.9<br/>squared_error = 0.366<br/>samples = 12<br/>value = 64.227>, fillcolor="#fefcfa"] ;
565 -> 566 ;
567 [label=<Category Name &le; 30.5<br/>squared_error = 0.0<br/>samples = 10<br/>value = 63.972>, fillcolor="#fefcfa"] ;
566 -> 567 ;
568 [label=<squared_error = -0.0<br/>samples = 6<br/>value = 63.98>, fillcolor="#fefcfa"] ;
567 -> 568 ;
569 [label=<Product Image &le; 31.5<br/>squared_error = 0.0<br/>samples = 4<br/>value = 63.96>, fillcolor="#fefcfa"] ;
567 -> 569 ;
570 [label=<squared_error = 0.0<br/>samples = 2<br/>value = 63.96>, fillcolor="#fefcfa"] ;
569 -> 570 ;
571 [label=<squared_error = 0.0<br/>samples = 2<br/>value = 63.96>, fillcolor="#fefcfa"] ;
569 -> 571 ;
572 [label=<Order Item Product Price &le; 43.5<br/>squared_error = 0.25<br/>samples = 2<br/>value = 65.5>, fillcolor="#fefbf9"] ;
566 -> 572 ;
573 [label=<squared_error = 0.0<br/>samples = 1<br/>value = 66.0>, fillcolor="#fefbf9"] ;
572 -> 573 ;
574 [label=<squared_error = 0.0<br/>samples = 1<br/>value = 65.0>, fillcolor="#fefcfa"] ;
572 -> 574 ;
575 [label=<Category Name &le; 27.0<br/>squared_error = 0.158<br/>samples = 5<br/>value = 65.794>, fillcolor="#fefbf9"] ;
565 -> 575 ;
576 [label=<squared_error = 0.0<br/>samples = 1<br/>value = 65.0>, fillcolor="#fefcfa"] ;
575 -> 576 ;
577 [label=<Product Price &le; 21.995<br/>squared_error = 0.0<br/>samples = 4<br/>value = 65.993>, fillcolor="#fefbf9"] ;
575 -> 577 ;
578 [label=<squared_error = 0.0<br/>samples = 1<br/>value = 65.97>, fillcolor="#fefbf9"] ;
577 -> 578 ;
579 [label=<Sales per customer &le; 53.46<br/>squared_error = 0.0<br/>samples = 3<br/>value = 66.0>, fillcolor="#fefbf9"] ;
577 -> 579 ;
580 [label=<squared_error = 0.0<br/>samples = 1<br/>value = 66.0>, fillcolor="#fefbf9"] ;
579 -> 580 ;
581 [label=<squared_error = 0.0<br/>samples = 2<br/>value = 66.0>, fillcolor="#fefbf9"] ;
579 -> 581 ;
582 [label=<Product Name &le; 71.5<br/>squared_error = 0.73<br/>samples = 4<br/>value = 70.48>, fillcolor="#fefbf9"] ;
564 -> 582 ;
583 [label=<squared_error = 0.0<br/>samples = 1<br/>value = 71.96>, fillcolor="#fefbf9"] ;
582 -> 583 ;
584 [label=<Product Price &le; 52.495<br/>squared_error = 0.0<br/>samples = 3<br/>value = 69.987>, fillcolor="#fefbf9"] ;
582 -> 584 ;
585 [label=<squared_error = -0.0<br/>samples = 2<br/>value = 69.98>, fillcolor="#fefbf9"] ;
584 -> 585 ;
586 [label=<squared_error = 0.0<br/>samples = 1<br/>value = 70.0>, fillcolor="#fefbf9"] ;
584 -> 586 ;
587 [label=<Order Item Discount &le; 16.565<br/>squared_error = 5.184<br/>samples = 18<br/>value = 71.866>, fillcolor="#fefbf9"] ;
563 -> 587 ;
588 [label=<Product Price &le; 26.49<br/>squared_error = 0.542<br/>samples = 12<br/>value = 70.313>, fillcolor="#fefbf9"] ;
587 -> 588 ;
589 [label=<squared_error = 0.0<br/>samples = 2<br/>value = 71.96>, fillcolor="#fefbf9"] ;
588 -> 589 ;
590 [label=<Product Image &le; 114.5<br/>squared_error = 0.0<br/>samples = 10<br/>value = 69.984>, fillcolor="#fefbf9"] ;
588 -> 590 ;
591 [label=<squared_error = -0.0<br/>samples = 8<br/>value = 69.98>, fillcolor="#fefbf9"] ;
590 -> 591 ;
592 [label=<squared_error = 0.0<br/>samples = 2<br/>value = 70.0>, fillcolor="#fefbf9"] ;
590 -> 592 ;
593 [label=<Product Image &le; 110.5<br/>squared_error = 0.0<br/>samples = 6<br/>value = 74.972>, fillcolor="#fefbf9"] ;
587 -> 593 ;
594 [label=<Sales per customer &le; 56.22<br/>squared_error = 0.0<br/>samples = 5<br/>value = 74.966>, fillcolor="#fefbf9"] ;
593 -> 594 ;
595 [label=<squared_error = 0.0<br/>samples = 1<br/>value = 74.95>, fillcolor="#fefbf9"] ;
594 -> 595 ;
596 [label=<squared_error = -0.0<br/>samples = 4<br/>value = 74.97>, fillcolor="#fefbf9"] ;
594 -> 596 ;
597 [label=<squared_error = 0.0<br/>samples = 1<br/>value = 75.0>, fillcolor="#fefbf9"] ;
593 -> 597 ;
598 [label=<Sales per customer &le; 79.195<br/>squared_error = 211.333<br/>samples = 1145<br/>value = 90.296>, fillcolor="#fefaf7"] ;
2 -> 598 ;
599 [label=<Order Item Discount &le; 13.495<br/>squared_error = 82.8<br/>samples = 533<br/>value = 78.296>, fillcolor="#fefbf8"] ;
598 -> 599 ;
600 [label=<Order Item Total &le; 67.04<br/>squared_error = 40.988<br/>samples = 393<br/>value = 74.686>, fillcolor="#fefbf9"] ;
599 -> 600 ;
601 [label=<Order Item Discount &le; 6.12<br/>squared_error = 26.218<br/>samples = 157<br/>value = 69.352>, fillcolor="#fefbf9"] ;
600 -> 601 ;
602 [label=<Sales per customer &le; 65.04<br/>squared_error = 5.486<br/>samples = 77<br/>value = 64.615>, fillcolor="#fefcfa"] ;
601 -> 602 ;
603 [label=<Sales per customer &le; 60.015<br/>squared_error = 2.41<br/>samples = 67<br/>value = 63.963>, fillcolor="#fefcfa"] ;
602 -> 603 ;
604 [label=<Order Item Total &le; 59.73<br/>squared_error = 3.989<br/>samples = 14<br/>value = 61.977>, fillcolor="#fefcfa"] ;
603 -> 604 ;
605 [label=<Category Name &le; 30.5<br/>squared_error = 0.0<br/>samples = 7<br/>value = 63.974>, fillcolor="#fefcfa"] ;
604 -> 605 ;
606 [label=<squared_error = -0.0<br/>samples = 5<br/>value = 63.98>, fillcolor="#fefcfa"] ;
605 -> 606 ;
607 [label=<Product Image &le; 31.5<br/>squared_error = 0.0<br/>samples = 2<br/>value = 63.96>, fillcolor="#fefcfa"] ;
605 -> 607 ;
608 [label=<squared_error = 0.0<br/>samples = 1<br/>value = 63.96>, fillcolor="#fefcfa"] ;
607 -> 608 ;
609 [label=<squared_error = 0.0<br/>samples = 1<br/>value = 63.96>, fillcolor="#fefcfa"] ;
607 -> 609 ;
610 [label=<Category Name &le; 22.5<br/>squared_error = 0.0<br/>samples = 7<br/>value = 59.98>, fillcolor="#fefcfa"] ;
604 -> 610 ;
611 [label=<Product Image &le; 68.5<br/>squared_error = 0.0<br/>samples = 3<br/>value = 59.997>, fillcolor="#fefcfa"] ;
610 -> 611 ;
612 [label=<squared_error = 0.0<br/>samples = 2<br/>value = 60.0>, fillcolor="#fefcfa"] ;
611 -> 612 ;
613 [label=<squared_error = 0.0<br/>samples = 1<br/>value = 59.99>, fillcolor="#fefcfa"] ;
611 -> 613 ;
614 [label=<Product Name &le; 36.5<br/>squared_error = 0.0<br/>samples = 4<br/>value = 59.967>, fillcolor="#fefcfa"] ;
610 -> 614 ;
615 [label=<Product Name &le; 28.5<br/>squared_error = 0.0<br/>samples = 2<br/>value = 59.975>, fillcolor="#fefcfa"] ;
614 -> 615 ;
616 [label=<squared_error = 0.0<br/>samples = 1<br/>value = 59.98>, fillcolor="#fefcfa"] ;
615 -> 616 ;
617 [label=<squared_error = 0.0<br/>samples = 1<br/>value = 59.97>, fillcolor="#fefcfa"] ;
615 -> 617 ;
618 [label=<Product Image &le; 38.5<br/>squared_error = 0.0<br/>samples = 2<br/>value = 59.96>, fillcolor="#fefcfa"] ;
614 -> 618 ;
619 [label=<squared_error = 0.0<br/>samples = 1<br/>value = 59.96>, fillcolor="#fefcfa"] ;
618 -> 619 ;
620 [label=<squared_error = 0.0<br/>samples = 1<br/>value = 59.96>, fillcolor="#fefcfa"] ;
618 -> 620 ;
621 [label=<Product Name &le; 33.0<br/>squared_error = 0.676<br/>samples = 53<br/>value = 64.488>, fillcolor="#fefcfa"] ;
603 -> 621 ;
622 [label=<Product Price &le; 23.99<br/>squared_error = 0.0<br/>samples = 28<br/>value = 63.971>, fillcolor="#fefcfa"] ;
621 -> 622 ;
623 [label=<squared_error = 0.0<br/>samples = 13<br/>value = 63.96>, fillcolor="#fefcfa"] ;
622 -> 623 ;
624 [label=<Product Name &le; 5.5<br/>squared_error = 0.0<br/>samples = 15<br/>value = 63.98>, fillcolor="#fefcfa"] ;
622 -> 624 ;
625 [label=<squared_error = 0.0<br/>samples = 4<br/>value = 63.98>, fillcolor="#fefcfa"] ;
624 -> 625 ;
626 [label=<squared_error = -0.0<br/>samples = 11<br/>value = 63.98>, fillcolor="#fefcfa"] ;
624 -> 626 ;
627 [label=<Order Item Product Price &le; 26.995<br/>squared_error = 0.798<br/>samples = 25<br/>value = 65.067>, fillcolor="#fefcfa"] ;
621 -> 627 ;
628 [label=<Product Image &le; 44.0<br/>squared_error = 0.0<br/>samples = 11<br/>value = 65.986>, fillcolor="#fefbf9"] ;
627 -> 628 ;
629 [label=<squared_error = 0.0<br/>samples = 5<br/>value = 65.97>, fillcolor="#fefbf9"] ;
628 -> 629 ;
630 [label=<squared_error = 0.0<br/>samples = 6<br/>value = 66.0>, fillcolor="#fefbf9"] ;
628 -> 630 ;
631 [label=<Product Name &le; 75.5<br/>squared_error = 0.239<br/>samples = 14<br/>value = 64.344>, fillcolor="#fefcfa"] ;
627 -> 631 ;
632 [label=<squared_error = 0.0<br/>samples = 5<br/>value = 65.0>, fillcolor="#fefcfa"] ;
631 -> 632 ;
633 [label=<squared_error = -0.0<br/>samples = 9<br/>value = 63.98>, fillcolor="#fefcfa"] ;
631 -> 633 ;
634 [label=<Category Name &le; 26.0<br/>squared_error = 4.192<br/>samples = 10<br/>value = 68.98>, fillcolor="#fefbf9"] ;
602 -> 634 ;
635 [label=<Category Name &le; 22.5<br/>squared_error = 0.478<br/>samples = 7<br/>value = 70.266>, fillcolor="#fefbf9"] ;
634 -> 635 ;
636 [label=<Category Name &le; 20.0<br/>squared_error = 0.0<br/>samples = 6<br/>value = 69.983>, fillcolor="#fefbf9"] ;
635 -> 636 ;
637 [label=<squared_error = 0.0<br/>samples = 5<br/>value = 69.98>, fillcolor="#fefbf9"] ;
636 -> 637 ;
638 [label=<squared_error = 0.0<br/>samples = 1<br/>value = 70.0>, fillcolor="#fefbf9"] ;
636 -> 638 ;
639 [label=<squared_error = 0.0<br/>samples = 1<br/>value = 71.96>, fillcolor="#fefbf9"] ;
635 -> 639 ;
640 [label=<Product Image &le; 44.0<br/>squared_error = 0.0<br/>samples = 3<br/>value = 65.98>, fillcolor="#fefbf9"] ;
634 -> 640 ;
641 [label=<squared_error = 0.0<br/>samples = 2<br/>value = 65.97>, fillcolor="#fefbf9"] ;
640 -> 641 ;
642 [label=<squared_error = 0.0<br/>samples = 1<br/>value = 66.0>, fillcolor="#fefbf9"] ;
640 -> 642 ;
643 [label=<Product Price &le; 29.995<br/>squared_error = 3.79<br/>samples = 80<br/>value = 73.911>, fillcolor="#fefbf9"] ;
601 -> 643 ;
644 [label=<Sales per customer &le; 61.315<br/>squared_error = 0.635<br/>samples = 66<br/>value = 74.743>, fillcolor="#fefbf9"] ;
643 -> 644 ;
645 [label=<squared_error = 0.0<br/>samples = 3<br/>value = 71.96>, fillcolor="#fefbf9"] ;
644 -> 645 ;
646 [label=<Order Item Discount &le; 7.735<br/>squared_error = 0.279<br/>samples = 63<br/>value = 74.876>, fillcolor="#fefbf9"] ;
644 -> 646 ;
647 [label=<squared_error = 0.0<br/>samples = 1<br/>value = 71.96>, fillcolor="#fefbf9"] ;
646 -> 647 ;
648 [label=<Product Price &le; 21.49<br/>squared_error = 0.144<br/>samples = 62<br/>value = 74.923>, fillcolor="#fefbf9"] ;
646 -> 648 ;
649 [label=<Product Price &le; 16.49<br/>squared_error = 0.683<br/>samples = 12<br/>value = 74.701>, fillcolor="#fefbf9"] ;
648 -> 649 ;
650 [label=<Product Image &le; 38.5<br/>squared_error = 0.0<br/>samples = 11<br/>value = 74.95>, fillcolor="#fefbf9"] ;
649 -> 650 ;
651 [label=<squared_error = 0.0<br/>samples = 5<br/>value = 74.95>, fillcolor="#fefbf9"] ;
650 -> 651 ;
652 [label=<Order Item Discount &le; 10.49<br/>squared_error = 0.0<br/>samples = 6<br/>value = 74.95>, fillcolor="#fefbf9"] ;
650 -> 652 ;
653 [label=<squared_error = 0.0<br/>samples = 2<br/>value = 74.95>, fillcolor="#fefbf9"] ;
652 -> 653 ;
654 [label=<squared_error = -0.0<br/>samples = 4<br/>value = 74.95>, fillcolor="#fefbf9"] ;
652 -> 654 ;
655 [label=<squared_error = -0.0<br/>samples = 1<br/>value = 71.96>, fillcolor="#fefbf9"] ;
649 -> 655 ;
656 [label=<Order Item Product Price &le; 24.995<br/>squared_error = 0.0<br/>samples = 50<br/>value = 74.976>, fillcolor="#fefbf9"] ;
648 -> 656 ;
657 [label=<squared_error = -0.0<br/>samples = 40<br/>value = 74.97>, fillcolor="#fefbf9"] ;
656 -> 657 ;
658 [label=<Order Item Discount &le; 9.375<br/>squared_error = 0.0<br/>samples = 10<br/>value = 75.0>, fillcolor="#fefbf9"] ;
656 -> 658 ;
659 [label=<squared_error = 0.0<br/>samples = 2<br/>value = 75.0>, fillcolor="#fefbf9"] ;
658 -> 659 ;
660 [label=<squared_error = 0.0<br/>samples = 8<br/>value = 75.0>, fillcolor="#fefbf9"] ;
658 -> 660 ;
661 [label=<Product Price &le; 52.495<br/>squared_error = 0.0<br/>samples = 14<br/>value = 69.987>, fillcolor="#fefbf9"] ;
643 -> 661 ;
662 [label=<squared_error = -0.0<br/>samples = 9<br/>value = 69.98>, fillcolor="#fefbf9"] ;
661 -> 662 ;
663 [label=<squared_error = 0.0<br/>samples = 5<br/>value = 70.0>, fillcolor="#fefbf9"] ;
661 -> 663 ;
664 [label=<Order Item Discount &le; 7.53<br/>squared_error = 19.284<br/>samples = 236<br/>value = 78.236>, fillcolor="#fefbf8"] ;
600 -> 664 ;
665 [label=<Order Item Total &le; 75.275<br/>squared_error = 10.311<br/>samples = 171<br/>value = 76.536>, fillcolor="#fefbf8"] ;
664 -> 665 ;
666 [label=<Order Item Discount &le; 5.425<br/>squared_error = 6.081<br/>samples = 117<br/>value = 74.879>, fillcolor="#fefbf9"] ;
665 -> 666 ;
667 [label=<Order Item Product Price &le; 29.995<br/>squared_error = 3.323<br/>samples = 86<br/>value = 74.031>, fillcolor="#fefbf9"] ;
666 -> 667 ;
668 [label=<Product Price &le; 21.49<br/>squared_error = 0.777<br/>samples = 74<br/>value = 74.687>, fillcolor="#fefbf9"] ;
667 -> 668 ;
669 [label=<Order Item Product Price &le; 16.49<br/>squared_error = 2.225<br/>samples = 15<br/>value = 73.555>, fillcolor="#fefbf9"] ;
668 -> 669 ;
670 [label=<squared_error = -0.0<br/>samples = 8<br/>value = 74.95>, fillcolor="#fefbf9"] ;
669 -> 670 ;
671 [label=<Order Item Discount &le; 0.36<br/>squared_error = 0.0<br/>samples = 7<br/>value = 71.96>, fillcolor="#fefbf9"] ;
669 -> 671 ;
672 [label=<squared_error = 0.0<br/>samples = 1<br/>value = 71.96>, fillcolor="#fefbf9"] ;
671 -> 672 ;
673 [label=<squared_error = 0.0<br/>samples = 6<br/>value = 71.96>, fillcolor="#fefbf9"] ;
671 -> 673 ;
674 [label=<Order Item Product Price &le; 24.995<br/>squared_error = 0.0<br/>samples = 59<br/>value = 74.975>, fillcolor="#fefbf9"] ;
668 -> 674 ;
675 [label=<squared_error = -0.0<br/>samples = 49<br/>value = 74.97>, fillcolor="#fefbf9"] ;
674 -> 675 ;
676 [label=<Product Name &le; 90.0<br/>squared_error = 0.0<br/>samples = 10<br/>value = 75.0>, fillcolor="#fefbf9"] ;
674 -> 676 ;
677 [label=<squared_error = 0.0<br/>samples = 4<br/>value = 75.0>, fillcolor="#fefbf9"] ;
676 -> 677 ;
678 [label=<squared_error = 0.0<br/>samples = 6<br/>value = 75.0>, fillcolor="#fefbf9"] ;
676 -> 678 ;
679 [label=<Product Name &le; 114.5<br/>squared_error = 0.0<br/>samples = 12<br/>value = 69.985>, fillcolor="#fefbf9"] ;
667 -> 679 ;
680 [label=<squared_error = -0.0<br/>samples = 9<br/>value = 69.98>, fillcolor="#fefbf9"] ;
679 -> 680 ;
681 [label=<squared_error = 0.0<br/>samples = 3<br/>value = 70.0>, fillcolor="#fefbf9"] ;
679 -> 681 ;
682 [label=<Order Item Total &le; 70.505<br/>squared_error = 6.204<br/>samples = 31<br/>value = 77.231>, fillcolor="#fefbf8"] ;
666 -> 682 ;
683 [label=<Order Item Product Price &le; 24.995<br/>squared_error = 0.0<br/>samples = 17<br/>value = 74.971>, fillcolor="#fefbf9"] ;
682 -> 683 ;
684 [label=<Product Price &le; 19.99<br/>squared_error = 0.0<br/>samples = 14<br/>value = 74.964>, fillcolor="#fefbf9"] ;
683 -> 684 ;
685 [label=<squared_error = 0.0<br/>samples = 4<br/>value = 74.95>, fillcolor="#fefbf9"] ;
684 -> 685 ;
686 [label=<Product Name &le; 88.0<br/>squared_error = 0.0<br/>samples = 10<br/>value = 74.97>, fillcolor="#fefbf9"] ;
684 -> 686 ;
687 [label=<squared_error = 0.0<br/>samples = 5<br/>value = 74.97>, fillcolor="#fefbf9"] ;
686 -> 687 ;
688 [label=<Sales per customer &le; 67.845<br/>squared_error = 0.0<br/>samples = 5<br/>value = 74.97>, fillcolor="#fefbf9"] ;
686 -> 688 ;
689 [label=<Product Image &le; 89.5<br/>squared_error = 0.0<br/>samples = 3<br/>value = 74.97>, fillcolor="#fefbf9"] ;
688 -> 689 ;
690 [label=<squared_error = 0.0<br/>samples = 1<br/>value = 74.97>, fillcolor="#fefbf9"] ;
689 -> 690 ;
691 [label=<Product Image &le; 98.0<br/>squared_error = 0.0<br/>samples = 2<br/>value = 74.97>, fillcolor="#fefbf9"] ;
689 -> 691 ;
692 [label=<squared_error = 0.0<br/>samples = 1<br/>value = 74.97>, fillcolor="#fefbf9"] ;
691 -> 692 ;
693 [label=<squared_error = 0.0<br/>samples = 1<br/>value = 74.97>, fillcolor="#fefbf9"] ;
691 -> 693 ;
694 [label=<squared_error = 0.0<br/>samples = 2<br/>value = 74.97>, fillcolor="#fefbf9"] ;
688 -> 694 ;
695 [label=<squared_error = -0.0<br/>samples = 3<br/>value = 75.0>, fillcolor="#fefbf9"] ;
683 -> 695 ;
696 [label=<Order Item Product Price &le; 29.99<br/>squared_error = 0.0<br/>samples = 14<br/>value = 79.976>, fillcolor="#fefbf8"] ;
682 -> 696 ;
697 [label=<Product Image &le; 32.0<br/>squared_error = 0.0<br/>samples = 6<br/>value = 79.958>, fillcolor="#fefbf8"] ;
696 -> 697 ;
698 [label=<squared_error = 0.0<br/>samples = 1<br/>value = 79.95>, fillcolor="#fefbf8"] ;
697 -> 698 ;
699 [label=<Category Name &le; 23.0<br/>squared_error = 0.0<br/>samples = 5<br/>value = 79.96>, fillcolor="#fefbf8"] ;
697 -> 699 ;
700 [label=<squared_error = 0.0<br/>samples = 1<br/>value = 79.96>, fillcolor="#fefbf8"] ;
699 -> 700 ;
701 [label=<squared_error = 0.0<br/>samples = 4<br/>value = 79.96>, fillcolor="#fefbf8"] ;
699 -> 701 ;
702 [label=<Order Item Product Price &le; 59.99<br/>squared_error = 0.0<br/>samples = 8<br/>value = 79.989>, fillcolor="#fefbf8"] ;
696 -> 702 ;
703 [label=<squared_error = 0.0<br/>samples = 3<br/>value = 79.98>, fillcolor="#fefbf8"] ;
702 -> 703 ;
704 [label=<Product Price &le; 79.995<br/>squared_error = 0.0<br/>samples = 5<br/>value = 79.994>, fillcolor="#fefbf8"] ;
702 -> 704 ;
705 [label=<squared_error = -0.0<br/>samples = 3<br/>value = 79.99>, fillcolor="#fefbf8"] ;
704 -> 705 ;
706 [label=<squared_error = 0.0<br/>samples = 2<br/>value = 80.0>, fillcolor="#fefbf8"] ;
704 -> 706 ;
707 [label=<Order Item Discount &le; 5.14<br/>squared_error = 0.636<br/>samples = 54<br/>value = 80.126>, fillcolor="#fefbf8"] ;
665 -> 707 ;
708 [label=<Product Price &le; 29.99<br/>squared_error = 0.0<br/>samples = 52<br/>value = 79.97>, fillcolor="#fefbf8"] ;
707 -> 708 ;
709 [label=<Category Name &le; 34.0<br/>squared_error = 0.0<br/>samples = 26<br/>value = 79.956>, fillcolor="#fefbf8"] ;
708 -> 709 ;
710 [label=<Product Image &le; 34.0<br/>squared_error = 0.0<br/>samples = 15<br/>value = 79.96>, fillcolor="#fefbf8"] ;
709 -> 710 ;
711 [label=<squared_error = 0.0<br/>samples = 5<br/>value = 79.96>, fillcolor="#fefbf8"] ;
710 -> 711 ;
712 [label=<squared_error = -0.0<br/>samples = 10<br/>value = 79.96>, fillcolor="#fefbf8"] ;
710 -> 712 ;
713 [label=<Order Item Discount &le; 2.0<br/>squared_error = 0.0<br/>samples = 11<br/>value = 79.95>, fillcolor="#fefbf8"] ;
709 -> 713 ;
714 [label=<squared_error = 0.0<br/>samples = 3<br/>value = 79.95>, fillcolor="#fefbf8"] ;
713 -> 714 ;
715 [label=<squared_error = -0.0<br/>samples = 8<br/>value = 79.95>, fillcolor="#fefbf8"] ;
713 -> 715 ;
716 [label=<Product Price &le; 59.99<br/>squared_error = 0.0<br/>samples = 26<br/>value = 79.985>, fillcolor="#fefbf8"] ;
708 -> 716 ;
717 [label=<squared_error = -0.0<br/>samples = 15<br/>value = 79.98>, fillcolor="#fefbf8"] ;
716 -> 717 ;
718 [label=<Order Item Product Price &le; 79.995<br/>squared_error = 0.0<br/>samples = 11<br/>value = 79.991>, fillcolor="#fefbf8"] ;
716 -> 718 ;
719 [label=<Product Name &le; 35.0<br/>squared_error = 0.0<br/>samples = 10<br/>value = 79.99>, fillcolor="#fefbf8"] ;
718 -> 719 ;
720 [label=<squared_error = 0.0<br/>samples = 6<br/>value = 79.99>, fillcolor="#fefbf8"] ;
719 -> 720 ;
721 [label=<squared_error = -0.0<br/>samples = 4<br/>value = 79.99>, fillcolor="#fefbf8"] ;
719 -> 721 ;
722 [label=<squared_error = 0.0<br/>samples = 1<br/>value = 80.0>, fillcolor="#fefbf8"] ;
718 -> 722 ;
723 [label=<Category Name &le; 27.0<br/>squared_error = 0.046<br/>samples = 2<br/>value = 84.185>, fillcolor="#fefaf8"] ;
707 -> 723 ;
724 [label=<squared_error = 0.0<br/>samples = 1<br/>value = 83.97>, fillcolor="#fefaf8"] ;
723 -> 724 ;
725 [label=<squared_error = 0.0<br/>samples = 1<br/>value = 84.4>, fillcolor="#fefaf8"] ;
723 -> 725 ;
726 [label=<Sales per customer &le; 74.08<br/>squared_error = 15.298<br/>samples = 65<br/>value = 82.707>, fillcolor="#fefaf8"] ;
664 -> 726 ;
727 [label=<Category Name &le; 19.0<br/>squared_error = 1.369<br/>samples = 45<br/>value = 80.336>, fillcolor="#fefbf8"] ;
726 -> 727 ;
728 [label=<squared_error = 0.0<br/>samples = 3<br/>value = 83.97>, fillcolor="#fefaf8"] ;
727 -> 728 ;
729 [label=<Product Name &le; 1.5<br/>squared_error = 0.456<br/>samples = 42<br/>value = 80.076>, fillcolor="#fefbf8"] ;
727 -> 729 ;
730 [label=<squared_error = 0.0<br/>samples = 1<br/>value = 84.4>, fillcolor="#fefaf8"] ;
729 -> 730 ;
731 [label=<Product Price &le; 29.99<br/>squared_error = 0.0<br/>samples = 41<br/>value = 79.97>, fillcolor="#fefbf8"] ;
729 -> 731 ;
732 [label=<Product Name &le; 32.5<br/>squared_error = 0.0<br/>samples = 21<br/>value = 79.956>, fillcolor="#fefbf8"] ;
731 -> 732 ;
733 [label=<squared_error = 0.0<br/>samples = 9<br/>value = 79.95>, fillcolor="#fefbf8"] ;
732 -> 733 ;
734 [label=<squared_error = -0.0<br/>samples = 12<br/>value = 79.96>, fillcolor="#fefbf8"] ;
732 -> 734 ;
735 [label=<Product Price &le; 59.99<br/>squared_error = 0.0<br/>samples = 20<br/>value = 79.986>, fillcolor="#fefbf8"] ;
731 -> 735 ;
736 [label=<squared_error = 0.0<br/>samples = 11<br/>value = 79.98>, fillcolor="#fefbf8"] ;
735 -> 736 ;
737 [label=<Order Item Product Price &le; 79.995<br/>squared_error = 0.0<br/>samples = 9<br/>value = 79.993>, fillcolor="#fefbf8"] ;
735 -> 737 ;
738 [label=<squared_error = 0.0<br/>samples = 6<br/>value = 79.99>, fillcolor="#fefbf8"] ;
737 -> 738 ;
739 [label=<Sales per customer &le; 68.8<br/>squared_error = 0.0<br/>samples = 3<br/>value = 80.0>, fillcolor="#fefbf8"] ;
737 -> 739 ;
740 [label=<squared_error = 0.0<br/>samples = 1<br/>value = 80.0>, fillcolor="#fefbf8"] ;
739 -> 740 ;
741 [label=<squared_error = 0.0<br/>samples = 2<br/>value = 80.0>, fillcolor="#fefbf8"] ;
739 -> 741 ;
742 [label=<Order Item Discount &le; 10.345<br/>squared_error = 5.523<br/>samples = 20<br/>value = 88.042>, fillcolor="#fefaf7"] ;
726 -> 742 ;
743 [label=<Category Name &le; 40.5<br/>squared_error = 1.971<br/>samples = 6<br/>value = 84.85>, fillcolor="#fefaf8"] ;
742 -> 743 ;
744 [label=<Product Price &le; 56.195<br/>squared_error = 0.044<br/>samples = 5<br/>value = 84.228>, fillcolor="#fefaf8"] ;
743 -> 744 ;
745 [label=<squared_error = 0.0<br/>samples = 2<br/>value = 83.97>, fillcolor="#fefaf8"] ;
744 -> 745 ;
746 [label=<squared_error = 0.0<br/>samples = 3<br/>value = 84.4>, fillcolor="#fefaf8"] ;
744 -> 746 ;
747 [label=<squared_error = 0.0<br/>samples = 1<br/>value = 87.96>, fillcolor="#fefaf7"] ;
743 -> 747 ;
748 [label=<Order Item Total &le; 77.85<br/>squared_error = 0.807<br/>samples = 14<br/>value = 89.41>, fillcolor="#fefaf7"] ;
742 -> 748 ;
749 [label=<Order Item Discount &le; 13.345<br/>squared_error = 0.615<br/>samples = 5<br/>value = 88.382>, fillcolor="#fefaf7"] ;
748 -> 749 ;
750 [label=<Order Item Product Price &le; 21.995<br/>squared_error = 0.0<br/>samples = 4<br/>value = 87.99>, fillcolor="#fefaf7"] ;
749 -> 750 ;
751 [label=<squared_error = 0.0<br/>samples = 1<br/>value = 87.96>, fillcolor="#fefaf7"] ;
750 -> 751 ;
752 [label=<squared_error = 0.0<br/>samples = 3<br/>value = 88.0>, fillcolor="#fefaf7"] ;
750 -> 752 ;
753 [label=<squared_error = 0.0<br/>samples = 1<br/>value = 89.95>, fillcolor="#fefaf7"] ;
749 -> 753 ;
754 [label=<Product Price &le; 29.995<br/>squared_error = 0.0<br/>samples = 9<br/>value = 89.981>, fillcolor="#fefaf7"] ;
748 -> 754 ;
755 [label=<Product Name &le; 31.0<br/>squared_error = 0.0<br/>samples = 3<br/>value = 89.957>, fillcolor="#fefaf7"] ;
754 -> 755 ;
756 [label=<squared_error = 0.0<br/>samples = 1<br/>value = 89.97>, fillcolor="#fefaf7"] ;
755 -> 756 ;
757 [label=<squared_error = 0.0<br/>samples = 2<br/>value = 89.95>, fillcolor="#fefaf7"] ;
755 -> 757 ;
758 [label=<Product Price &le; 37.495<br/>squared_error = 0.0<br/>samples = 6<br/>value = 89.993>, fillcolor="#fefaf7"] ;
754 -> 758 ;
759 [label=<squared_error = 0.0<br/>samples = 3<br/>value = 90.0>, fillcolor="#fefaf7"] ;
758 -> 759 ;
760 [label=<Product Image &le; 32.5<br/>squared_error = 0.0<br/>samples = 3<br/>value = 89.987>, fillcolor="#fefaf7"] ;
758 -> 760 ;
761 [label=<Order Item Discount &le; 11.25<br/>squared_error = 0.0<br/>samples = 2<br/>value = 89.99>, fillcolor="#fefaf7"] ;
760 -> 761 ;
762 [label=<squared_error = 0.0<br/>samples = 1<br/>value = 89.99>, fillcolor="#fefaf7"] ;
761 -> 762 ;
763 [label=<squared_error = 0.0<br/>samples = 1<br/>value = 89.99>, fillcolor="#fefaf7"] ;
761 -> 763 ;
764 [label=<squared_error = -0.0<br/>samples = 1<br/>value = 89.98>, fillcolor="#fefaf7"] ;
760 -> 764 ;
765 [label=<Sales per customer &le; 67.33<br/>squared_error = 60.919<br/>samples = 140<br/>value = 88.429>, fillcolor="#fefaf7"] ;
599 -> 765 ;
766 [label=<Order Item Discount &le; 20.55<br/>squared_error = 8.339<br/>samples = 48<br/>value = 79.44>, fillcolor="#fefbf8"] ;
765 -> 766 ;
767 [label=<Order Item Total &le; 62.73<br/>squared_error = 4.867<br/>samples = 45<br/>value = 78.95>, fillcolor="#fefbf8"] ;
766 -> 767 ;
768 [label=<Order Item Discount &le; 17.495<br/>squared_error = 6.171<br/>samples = 18<br/>value = 77.194>, fillcolor="#fefbf8"] ;
767 -> 768 ;
769 [label=<Sales per customer &le; 59.99<br/>squared_error = 0.0<br/>samples = 10<br/>value = 74.972>, fillcolor="#fefbf9"] ;
768 -> 769 ;
770 [label=<Order Item Total &le; 59.97<br/>squared_error = 0.0<br/>samples = 8<br/>value = 74.965>, fillcolor="#fefbf9"] ;
769 -> 770 ;
771 [label=<squared_error = 0.0<br/>samples = 2<br/>value = 74.95>, fillcolor="#fefbf9"] ;
770 -> 771 ;
772 [label=<Product Name &le; 44.0<br/>squared_error = 0.0<br/>samples = 6<br/>value = 74.97>, fillcolor="#fefbf9"] ;
770 -> 772 ;
773 [label=<squared_error = 0.0<br/>samples = 1<br/>value = 74.97>, fillcolor="#fefbf9"] ;
772 -> 773 ;
774 [label=<squared_error = 0.0<br/>samples = 5<br/>value = 74.97>, fillcolor="#fefbf9"] ;
772 -> 774 ;
775 [label=<squared_error = 0.0<br/>samples = 2<br/>value = 75.0>, fillcolor="#fefbf9"] ;
769 -> 775 ;
776 [label=<Product Price &le; 29.99<br/>squared_error = 0.0<br/>samples = 8<br/>value = 79.971>, fillcolor="#fefbf8"] ;
768 -> 776 ;
777 [label=<Category Name &le; 34.0<br/>squared_error = 0.0<br/>samples = 4<br/>value = 79.955>, fillcolor="#fefbf8"] ;
776 -> 777 ;
778 [label=<squared_error = 0.0<br/>samples = 2<br/>value = 79.96>, fillcolor="#fefbf8"] ;
777 -> 778 ;
779 [label=<squared_error = 0.0<br/>samples = 2<br/>value = 79.95>, fillcolor="#fefbf8"] ;
777 -> 779 ;
780 [label=<Product Price &le; 59.99<br/>squared_error = 0.0<br/>samples = 4<br/>value = 79.988>, fillcolor="#fefbf8"] ;
776 -> 780 ;
781 [label=<squared_error = 0.0<br/>samples = 2<br/>value = 79.98>, fillcolor="#fefbf8"] ;
780 -> 781 ;
782 [label=<Product Name &le; 22.5<br/>squared_error = 0.0<br/>samples = 2<br/>value = 79.995>, fillcolor="#fefbf8"] ;
780 -> 782 ;
783 [label=<squared_error = 0.0<br/>samples = 1<br/>value = 79.99>, fillcolor="#fefbf8"] ;
782 -> 783 ;
784 [label=<squared_error = -0.0<br/>samples = 1<br/>value = 80.0>, fillcolor="#fefbf8"] ;
782 -> 784 ;
785 [label=<Order Item Total &le; 66.79<br/>squared_error = 0.57<br/>samples = 27<br/>value = 80.121>, fillcolor="#fefbf8"] ;
767 -> 785 ;
786 [label=<Product Price &le; 29.99<br/>squared_error = 0.0<br/>samples = 26<br/>value = 79.973>, fillcolor="#fefbf8"] ;
785 -> 786 ;
787 [label=<Category Name &le; 34.0<br/>squared_error = 0.0<br/>samples = 12<br/>value = 79.956>, fillcolor="#fefbf8"] ;
786 -> 787 ;
788 [label=<Product Name &le; 34.0<br/>squared_error = 0.0<br/>samples = 7<br/>value = 79.96>, fillcolor="#fefbf8"] ;
787 -> 788 ;
789 [label=<squared_error = 0.0<br/>samples = 3<br/>value = 79.96>, fillcolor="#fefbf8"] ;
788 -> 789 ;
790 [label=<Product Name &le; 67.0<br/>squared_error = 0.0<br/>samples = 4<br/>value = 79.96>, fillcolor="#fefbf8"] ;
788 -> 790 ;
791 [label=<squared_error = 0.0<br/>samples = 2<br/>value = 79.96>, fillcolor="#fefbf8"] ;
790 -> 791 ;
792 [label=<squared_error = 0.0<br/>samples = 2<br/>value = 79.96>, fillcolor="#fefbf8"] ;
790 -> 792 ;
793 [label=<squared_error = -0.0<br/>samples = 5<br/>value = 79.95>, fillcolor="#fefbf8"] ;
787 -> 793 ;
794 [label=<Product Price &le; 59.99<br/>squared_error = 0.0<br/>samples = 14<br/>value = 79.988>, fillcolor="#fefbf8"] ;
786 -> 794 ;
795 [label=<squared_error = 0.0<br/>samples = 6<br/>value = 79.98>, fillcolor="#fefbf8"] ;
794 -> 795 ;
796 [label=<Product Price &le; 79.995<br/>squared_error = 0.0<br/>samples = 8<br/>value = 79.994>, fillcolor="#fefbf8"] ;
794 -> 796 ;
797 [label=<squared_error = -0.0<br/>samples = 5<br/>value = 79.99>, fillcolor="#fefbf8"] ;
796 -> 797 ;
798 [label=<Order Item Total &le; 64.8<br/>squared_error = 0.0<br/>samples = 3<br/>value = 80.0>, fillcolor="#fefbf8"] ;
796 -> 798 ;
799 [label=<squared_error = 0.0<br/>samples = 1<br/>value = 80.0>, fillcolor="#fefbf8"] ;
798 -> 799 ;
800 [label=<squared_error = 0.0<br/>samples = 2<br/>value = 80.0>, fillcolor="#fefbf8"] ;
798 -> 800 ;
801 [label=<squared_error = -0.0<br/>samples = 1<br/>value = 83.97>, fillcolor="#fefaf8"] ;
785 -> 801 ;
802 [label=<Order Item Total &le; 64.635<br/>squared_error = 2.848<br/>samples = 3<br/>value = 86.787>, fillcolor="#fefaf7"] ;
766 -> 802 ;
803 [label=<squared_error = 0.0<br/>samples = 1<br/>value = 84.4>, fillcolor="#fefaf8"] ;
802 -> 803 ;
804 [label=<Product Price &le; 21.995<br/>squared_error = 0.0<br/>samples = 2<br/>value = 87.98>, fillcolor="#fefaf7"] ;
802 -> 804 ;
805 [label=<squared_error = 0.0<br/>samples = 1<br/>value = 87.96>, fillcolor="#fefaf7"] ;
804 -> 805 ;
806 [label=<squared_error = 0.0<br/>samples = 1<br/>value = 88.0>, fillcolor="#fefaf7"] ;
804 -> 806 ;
807 [label=<Order Item Discount &le; 23.87<br/>squared_error = 24.196<br/>samples = 92<br/>value = 93.119>, fillcolor="#fefaf7"] ;
765 -> 807 ;
808 [label=<Order Item Total &le; 76.64<br/>squared_error = 8.918<br/>samples = 67<br/>value = 90.666>, fillcolor="#fefaf7"] ;
807 -> 808 ;
809 [label=<Order Item Product Price &le; 92.49<br/>squared_error = 3.592<br/>samples = 55<br/>value = 89.526>, fillcolor="#fefaf7"] ;
808 -> 809 ;
810 [label=<Product Image &le; 4.0<br/>squared_error = 2.559<br/>samples = 53<br/>value = 89.32>, fillcolor="#fefaf7"] ;
809 -> 810 ;
811 [label=<squared_error = 0.0<br/>samples = 2<br/>value = 84.4>, fillcolor="#fefaf8"] ;
810 -> 811 ;
812 [label=<Order Item Product Price &le; 28.99<br/>squared_error = 1.672<br/>samples = 51<br/>value = 89.513>, fillcolor="#fefaf7"] ;
810 -> 812 ;
813 [label=<Category Name &le; 20.5<br/>squared_error = 3.944<br/>samples = 11<br/>value = 87.785>, fillcolor="#fefaf7"] ;
812 -> 813 ;
814 [label=<squared_error = 0.0<br/>samples = 2<br/>value = 83.97>, fillcolor="#fefaf8"] ;
813 -> 814 ;
815 [label=<Order Item Product Price &le; 19.99<br/>squared_error = 0.869<br/>samples = 9<br/>value = 88.632>, fillcolor="#fefaf7"] ;
813 -> 815 ;
816 [label=<squared_error = 0.0<br/>samples = 3<br/>value = 89.95>, fillcolor="#fefaf7"] ;
815 -> 816 ;
817 [label=<Category Name &le; 36.0<br/>squared_error = 0.0<br/>samples = 6<br/>value = 87.973>, fillcolor="#fefaf7"] ;
815 -> 817 ;
818 [label=<squared_error = 0.0<br/>samples = 2<br/>value = 88.0>, fillcolor="#fefaf7"] ;
817 -> 818 ;
819 [label=<Order Item Total &le; 71.25<br/>squared_error = 0.0<br/>samples = 4<br/>value = 87.96>, fillcolor="#fefaf7"] ;
817 -> 819 ;
820 [label=<squared_error = 0.0<br/>samples = 1<br/>value = 87.96>, fillcolor="#fefaf7"] ;
819 -> 820 ;
821 [label=<squared_error = 0.0<br/>samples = 3<br/>value = 87.96>, fillcolor="#fefaf7"] ;
819 -> 821 ;
822 [label=<Order Item Product Price &le; 29.995<br/>squared_error = 0.0<br/>samples = 40<br/>value = 89.989>, fillcolor="#fefaf7"] ;
812 -> 822 ;
823 [label=<Sales per customer &le; 69.73<br/>squared_error = 0.0<br/>samples = 6<br/>value = 89.97>, fillcolor="#fefaf7"] ;
822 -> 823 ;
